-0.0011469629 -0.00550918 0.01474868 -0.0060014753 0.0 0.0 0.0 -0.0060001137 -0.008024576 -0.004610778 -0.0032778005 0.007272188 0.0019579092 -7.690715e-05 -0.00845175 -0.0060041184 0.0 -0.006001458 0.011918138 -0.0059972084 0.0 0.003882041 -0.0063525196 -0.0076516275 0.0 0.014819672 0.0010983014 -0.00055504683 0.001318373 0.0 -0.010141514 0.010233166 0.011051696 -0.006002544 0.008494506 0.0 -0.0046834103 -0.0045015123 0.0 0.0 0.0 0.0 -0.0067402977 -0.0072108265 -0.0038049861 0.0 0.0 -0.00011309041 -0.006003233 0.0 -0.0018008196 0.009494311 -0.004789997 0.0019353186 0.0 -0.009544991 -0.005544866 -0.0006030719 0.0 0.0 0.0 0.002597794 0.005083956 -0.010016672 -0.0090859365 -0.009016373 0.0 -0.001664216 -0.005885842 0.0 -0.0032899939 -0.0072786324 -0.004325703 0.0 -0.0032011718 0.0 0.0027771187 0.008263871 -0.00600452 -0.00236167 0.0 0.0 0.0038564452 0.00805629 -0.0038788207 0.012325667 -0.008557824 -0.0060001216 -0.0053455187 -0.0044323797 0.002954193 0.0 0.0046611126 0.0097857565 -0.005550442 0.0 0.008803716 -0.0069445213 -0.0024329706 -0.00562069 0.0 0.0 -0.006441214 0.0 0.0013483623 -0.00802376 -0.007409847 -0.0059084753 -0.0060024816 -0.009266804 0.00016497738 0.004490942 -0.008859153 0.0029717383 -0.008376231 0.0020560715 0.003160471 0.0 0.0 0.0 0.016395979 0.0 0.010937997 0.0065477355 -0.0071264124 0.0 0.0027558862 0.006160032 