-0.036662176 -0.05895647 0.050769817 -0.056031987 0.040060833 -0.027959488 -0.04278589 -0.077868015 -0.04720286 -0.013048734 0.01410173 -0.06573492 -0.013415954 0.08654372 0.021031575 -0.07090693 -0.02709464 0.02032421 -0.034747176 -0.033661764 -0.013361856 -0.09396037 0.026743412 0.06993252 -0.0026803464 -0.076081164 0.018458307 -0.028196657 0.009038947 0.03616923 0.039498564 -0.05378717 0.06296375 -0.08618469 -0.09092393 -0.025679521 0.06429491 -0.03192499 0.08101883 0.060235463 0.022680923 -0.046567786 -0.02149711 -0.045437302 0.06349331 -0.059576698 -0.019345514 -0.022560826 0.02842741 0.055996947 -0.01318372 0.037681997 0.039199103 0.03730014 -0.050354574 0.06388552 0.06474131 -0.036821473 -0.07395486 0.07633392 0.027496666 0.047237642 0.043932498 -0.07044485 0.06697327 -0.024523001 -0.017075256 -0.0056379423 -0.0053841677 0.044204168 -0.0042144773 -0.015962632 0.023777515 0.07725867 -0.06705766 -0.077977516 0.035075374 0.013383641 0.07362708 0.04071229 -0.07835324 0.048205085 -0.004087304 -0.014096366 -0.012941989 0.011227929 -0.05867683 -0.010650472 -0.03010064 0.018996712 -0.0036255291 0.008752242 -0.06571019 0.044684414 -0.0055778124 0.08011138 -0.045327917 0.004681053 -0.016864302 -0.039228156 0.01338096 -0.052725084 -0.047595065 0.050458126 -0.026855778 0.056520764 -0.0023357265 0.05799659 -0.04234185 -0.08083607 -0.030674899 -0.047736663 0.01458763 -0.01766552 0.02043402 0.099117845 -0.056706667 0.06222347 0.05250246 0.0547797 0.111317106 0.06888575 -0.027984612 0.015717352 0.07156701 0.054719456 -0.069075406 -0.020075789 
-0.01114856 -0.076372355 -0.038945243 0.04430119 0.064443775 -0.05496782 -0.07732667 0.07256924 0.02803496 0.0042915302 -0.06239207 -0.09191513 -0.081538394 -0.025133679 -0.019685837 0.052439433 -0.002874717 0.06562923 0.103905074 0.049377028 -0.05384904 -0.036103316 -0.042564005 0.049399085 0.0023417324 -0.067640014 0.077597566 -0.0064302897 -0.005491294 0.068062134 -0.06999404 0.0859542 -0.036066297 0.025836773 0.03077491 -0.023506787 -0.04657254 0.024338298 -0.080656916 0.06377641 0.04290525 0.02746594 0.032909486 0.027034441 -0.006910287 -0.01402431 0.06584566 -0.03964779 -0.012710893 -0.061985537 0.044367164 0.050022595 -0.05943656 0.049519524 -0.055236567 -0.08877785 -0.022435743 0.04905989 0.06743551 -0.0641018 -0.06592991 0.073368944 0.0439525 0.030534215 0.003038394 0.016450927 -0.05194041 0.03432591 0.020772219 0.074849255 -0.022549324 0.018262364 0.037284255 0.012493975 -0.029778633 -0.015789486 -0.037964597 0.06315128 0.0036089132 -0.04600156 0.02957002 0.0637651 -0.10078183 0.10383316 -0.07978316 0.045233235 0.068411574 -0.074278384 0.042233102 -0.019805703 -0.048508007 0.049785666 0.05897756 -0.060045812 0.006987458 0.041099228 0.009330624 -0.048542224 -0.005681376 -0.04703048 -0.020844445 -0.054270677 0.022972815 0.024905123 0.0074803256 -0.02500724 0.0104820365 -0.007704465 -0.026764909 -0.049628478 -0.0412306 0.058378782 0.047765274 0.058800947 -0.07226475 0.053357113 -0.051151987 0.01874587 -0.06543924 -0.02592007 0.07985343 0.05406239 0.014077937 0.014782042 0.06584066 0.07586206 -0.028507933 0.07714024 
-0.038345568 -0.04260947 -0.07731855 0.07172878 -0.032780062 -0.00055816025 -0.026912957 -0.035842936 -0.033817668 -0.037114926 -0.053596545 -0.08182871 0.070473135 0.018033238 -0.056369137 -0.058526576 -0.005999148 -0.05469008 -0.0478193 -0.048467565 -0.011190474 -0.080076486 -0.037123542 -0.032821693 -0.06297776 -0.026284123 0.012379423 -0.046638086 0.0042666397 -0.026474692 -0.006575201 0.015571049 -0.011288824 0.057733033 0.076451175 -0.051579848 0.05183537 0.0012658566 -0.012686968 0.039178602 -0.06535578 -0.043568727 0.038385488 0.009091641 0.070130706 0.065755434 -0.06977659 0.05856669 -0.024867592 0.053647794 0.01228793 -0.07266965 -0.025207385 -0.04238434 -0.061406683 -0.07877828 0.07500909 -0.023948038 0.022704653 -0.023618601 -0.05732344 -0.031001251 -0.037470262 0.005124392 -0.0866134 -0.048144292 0.037521444 -0.030449456 -0.030272577 0.03473661 0.067771725 -0.053234268 0.07399902 -0.046385948 0.07203836 -0.056878 -0.07771545 0.08129428 -0.083879024 0.077155374 -0.08080225 0.06831605 0.023735717 0.0343162 -0.029215837 0.07695125 0.030936945 -0.05492427 -0.032392606 0.018710155 0.08311898 0.028055325 -0.08884885 0.02237394 -0.08341205 -0.07325396 0.05246677 0.060009085 0.05895382 0.066468 0.08078923 -0.009380177 0.031420197 -0.013328649 0.07779076 -0.024493063 -0.018385813 0.0021628167 -0.07761032 -0.012254478 0.08161882 -0.030906359 0.027295563 -0.007608528 -0.05784043 0.033934277 0.034848757 0.019229405 -0.06520589 -0.030437749 -0.04865427 -0.02288181 -0.05249111 0.011969546 -0.048447974 -0.068671755 0.058918796 -0.023339178 
-0.030468525 -0.047936544 -0.04132888 -0.015721627 -0.04922251 -0.07100966 -0.047646534 0.06605819 0.053543918 -0.057871237 -0.042446014 -0.053925015 -0.0588551 -0.037992537 -0.012425675 -0.07146884 0.02161146 0.027047621 0.062213633 -0.048577085 0.07438252 -0.01128241 0.015066556 0.05317344 -0.0472501 -0.07855991 0.055572223 0.058892343 0.046038486 -0.0005022362 0.06572316 -0.010452276 0.08757266 0.035417255 -0.015819274 -0.054606773 0.0407433 0.05045615 0.06724409 -0.038948882 0.052084304 -0.052086048 0.036727637 0.028584896 -0.072028086 -0.029298782 0.0045086667 -0.014819581 -0.06831808 0.058947794 -0.018916331 0.053059272 0.009788767 0.033176616 -0.029510226 0.029752187 -0.043835223 -0.07443671 0.0038575456 0.041206375 0.00340648 -0.004835462 0.044271573 0.0020731753 0.052946586 -0.013140035 -0.012157276 -0.08440889 -0.012990779 -0.010082349 0.067862585 -0.025555914 -0.034056567 -0.07416468 -0.057881664 0.030105166 -0.022846691 0.0032112722 0.059126552 0.0049462933 -0.028527357 0.024152145 -0.008600093 0.104439765 0.057997223 0.02316763 -0.054181963 -0.077292025 -0.05061641 0.038653094 0.030788915 0.04919859 0.0028370228 0.032192644 -0.080324665 0.035739727 0.01921863 -0.0020051454 -0.009887393 -0.00871437 0.055197634 0.07479534 -0.058341976 0.025696479 0.061472908 0.010657696 0.03785294 -0.031689048 -0.008566495 -0.010018066 0.06534794 0.026022254 -0.0736439 -0.072621584 0.018472413 0.011078336 0.054393157 -0.024651844 0.03374079 -0.043244034 -0.04878238 0.06826829 -0.052341375 -0.068790294 0.012456153 0.042862475 -0.0069492073 0.026419073 
0.065766476 -0.024609573 -0.050919842 -0.07921156 0.055224575 -0.021190617 -0.052169338 0.022547599 -0.0057895356 0.08240492 0.09295998 -0.053527433 -0.043978486 -0.029511403 0.024539502 0.06587873 -0.053456187 0.020804105 0.02419637 0.050003882 0.051134802 -0.04580391 0.03786351 -0.04982631 0.070411526 -0.027362077 -0.076462105 0.0006074037 0.0058255782 -0.04194508 -0.017119467 -0.07787769 0.0038735815 0.03468217 -0.048629567 0.06435985 0.0033341113 -0.037216928 -0.05080214 0.0014845058 -0.018756486 -0.068558216 -0.052721344 -0.07961871 0.0357856 -0.035340838 0.05286544 -0.032443568 0.02880183 0.08068385 -0.021965524 -0.07972785 -0.009011137 -0.03109777 -0.06480156 -0.008206831 0.044913027 0.048807546 0.015246816 -0.010996103 0.05144959 -0.049267 0.0366813 0.011337358 -0.035088994 0.039131027 -0.0729079 0.06309476 -0.04119647 0.06600238 0.050699662 0.02469524 -0.06927965 -0.028452422 0.07452433 -0.06285684 -0.06250043 0.046286397 -0.073245205 -0.031783048 0.05566334 -0.055585217 -0.06044473 -0.034120716 0.050006554 0.07765569 0.06464195 0.024617696 -0.050509937 0.059687797 0.016404768 -0.014775351 0.076429084 0.031162446 0.07184892 -0.031386875 -0.0096044745 -0.057783045 0.027513878 0.027920416 -0.0093300715 0.058259465 0.030196775 0.043487005 -0.049863722 -0.050107516 -0.08583837 -0.04780021 -0.0305942 -0.010418236 0.0060986024 -0.024830649 0.007903112 0.024515616 0.044089865 0.06329041 -0.04600147 -0.040154412 -0.07683211 0.032033317 0.0003904866 0.04904435 -0.023015354 -0.04290854 -0.041263733 -0.07121116 0.07139162 -0.052979425 
-0.0044554747 0.03144769 -0.020376218 -0.047962308 -0.035646696 0.05247014 -0.046286393 -0.039514706 0.015375444 0.07426925 0.09247233 -0.0789076 0.0048958343 0.06781145 -0.044898238 -0.08123627 -0.010434985 0.06756223 0.025094492 -0.043075234 0.0114609 -0.07425008 0.026720712 0.019492356 0.065750204 -0.02843988 -0.032000735 0.046775416 -0.016872901 0.06437924 -0.059930485 0.006876643 0.0594947 0.001480087 -0.06840373 0.028778404 0.007705518 -0.007434581 -0.077805236 0.037175447 0.020608634 0.07449863 -0.049485058 -0.03622387 -0.08056543 -0.03745289 0.04384528 0.036942057 -0.05141716 0.080484964 -0.07123675 0.07361547 0.047915496 0.022446565 -0.033366688 0.054619398 -0.040768787 0.041152593 -0.005530402 -0.06278202 -0.04356012 -0.028744772 0.034306724 0.008527452 -0.0033016445 0.026682308 -0.07459146 0.06438334 0.06142803 -0.025755502 0.014501205 -0.036284596 0.02447032 0.048298396 0.05978509 -0.06638175 0.06429369 -0.05169128 -0.07595258 0.07695283 0.019896135 -0.024887308 -0.028213002 -0.0036802224 -0.0550269 0.07789652 0.06857298 0.05313999 -0.06367944 -0.021055603 0.069400966 0.018457733 -0.022999886 -0.045874298 0.00085376384 -0.07476199 -0.032449692 -0.035768423 0.005452268 0.006536805 0.07678095 0.0788086 -0.031475924 0.07479984 -0.00078342843 -0.074765325 0.07298134 -0.008086937 0.04605394 -0.015352798 0.08853583 -0.070708804 0.038495738 -0.07188823 0.058945127 0.033021256 0.037848853 -0.07759419 -0.0076183006 -0.012856275 -0.017444469 -0.0769487 0.07233429 0.07447373 -0.077025436 0.027475893 0.007431692 -0.07396042 
0.07253825 -0.015289109 0.044297446 -0.022307163 -0.06737475 0.0045335367 -0.020325191 0.0727176 0.025603306 0.08182449 -0.005687456 -0.067302786 -0.041036654 0.006944947 -0.026610356 -0.056960125 -0.057971448 -0.05459912 0.033946708 0.05182246 -0.07994022 -0.01433002 -0.06576999 -0.05798133 0.0013537556 0.0041288203 0.0761081 0.0012382368 -0.0033532945 0.021533042 0.018429607 -0.058721032 -0.0071271234 -0.014086277 -0.00021431013 0.06850337 0.019754166 -0.05969375 0.079252295 0.07267723 -0.013287038 0.0777606 0.00788233 -0.04646823 0.07637384 0.041359246 0.05289822 0.05942338 -0.0019549788 -0.0033425838 -0.060367804 0.032250308 -0.03946944 -0.028123712 0.049485646 0.06987267 -0.06984125 -0.0041943053 0.010668881 0.016617015 0.040768847 0.044799797 0.0460581 0.033780336 0.02997012 -0.08560334 -0.0031387582 -0.06598813 -0.0029411183 0.003685549 -0.00718059 -0.08724456 -0.069691025 -0.012058973 0.055552542 -0.03202904 -0.022652734 0.11034547 -0.08484995 -0.070358604 0.06920912 0.006132059 -0.06349655 0.10095586 -0.033954315 -0.053900253 -0.07639311 -0.08410777 0.05472236 0.06398827 -0.00733874 0.029696569 -0.076273106 0.07192868 0.02436282 -0.016270377 0.053102095 -0.027569428 -0.08219525 0.028047567 0.07684333 0.0055451244 0.054245204 0.04542961 0.012514627 0.033671524 0.013321054 -0.06908078 -0.07880127 -0.079779714 0.005913935 -0.083124295 -0.043183673 -0.03104366 -0.075389646 -0.022594348 -0.08219425 0.004511237 -0.007334724 0.0062375665 -0.021670872 -0.05283061 0.029836398 -0.07714565 0.03742684 0.006369166 -0.04562914 -0.044787787 
0.017150182 0.071696736 -0.04774115 0.033444732 0.009393677 0.04027468 0.02149313 -0.011126599 -0.036825772 -0.017159102 0.06837782 0.028587732 0.011619954 0.031191682 0.01757316 -0.04147285 0.06703792 0.0034162528 -0.025531203 0.028368575 -0.03872916 -0.097420245 0.00939398 0.06570644 -0.039118208 -0.067290954 0.041811865 0.05922777 -0.006456775 0.03846746 -0.06507913 -0.05893784 0.008290855 0.06271307 0.017909443 0.0009548664 0.05070041 -0.010715464 0.029311754 0.037853815 -0.042301275 -0.053722803 0.0569125 0.03414867 0.061771404 0.053833477 -0.07807005 0.030542353 0.060987752 -0.04380504 -0.005023707 0.034276012 -0.047090907 -0.026078539 0.06050969 0.057802003 0.032572564 -0.05364009 -0.00032838434 0.05252657 -0.05180133 0.051597495 -0.04286117 -0.07788688 -0.041469138 0.044121064 0.04003761 0.026719768 -0.079314105 -0.06699228 -0.06398219 -0.027064638 -0.020243185 -0.07723342 -0.07417746 0.03685323 -0.08351808 -0.013326035 0.07340175 0.07253504 0.06985315 -0.052432977 -0.0100797145 0.08229299 0.06788944 -0.06735526 0.05640091 -0.06898908 -0.0020610313 -0.06456322 0.033507347 -0.042031158 0.06482546 0.0024626162 -0.051147617 0.06312018 -0.042116612 0.058239076 0.005243814 0.017069202 0.028633505 0.0079874545 -0.031872597 -0.0055068135 0.00808667 -0.017699778 -0.0867095 0.070105575 -0.06634783 0.058176666 -0.032119516 0.074190326 -0.083985634 0.03001458 0.035963748 0.066467 -0.045222115 0.029483773 0.030320466 -0.06664784 0.065339565 0.025583394 -0.02985117 -0.04835205 -0.0037825454 -0.07566189 -0.017084919 -0.01587548 
-0.049635686 0.05629438 0.06552197 0.04114836 -0.05628532 0.033399194 0.03594829 -0.073186286 0.0198132 -0.035469193 0.06337302 0.05442936 0.070317626 0.07816004 -0.0072061815 0.06345676 0.07945415 0.06557609 -0.058810093 -0.035254303 -0.043225277 0.02914051 -0.039509818 -0.06781193 0.05642674 0.03245125 0.039571915 -0.03134069 0.020019691 -0.06624128 -0.04789574 0.01098563 -0.029545732 0.039271608 0.02904995 -0.04878742 0.014763558 0.045204397 -0.030448135 -0.061474852 0.02680219 -0.078624696 0.06562761 -0.07125174 0.06591465 -0.059683077 -0.077395745 -0.05185252 0.06050059 0.024710946 0.07315775 0.08798456 0.016553637 0.00039921055 0.047011964 0.06347618 0.06044678 -0.033116024 0.06640182 0.0290218 -0.03421885 0.034271047 0.003231789 0.049338713 0.06085011 -0.03274186 -0.008646987 -0.04169904 0.0076560024 0.015406437 -0.01387209 0.003525566 -0.01159655 0.0715198 0.010433323 -0.07287097 -0.034052018 -0.011803455 -0.04185825 -0.032054294 -0.015203446 0.052431278 -0.069562435 -0.017365841 -0.045972504 -0.0519364 -0.079796925 -0.0052104765 -0.041765586 0.05247673 0.051458232 0.06623813 -0.063119285 -0.022150274 -0.07584106 -0.00056928396 0.0484709 -0.065390565 -0.04878472 0.028530207 -0.062371373 0.022163294 -0.06311063 0.022190504 -0.044769716 -0.06912118 -0.04533331 -0.07178924 -0.0012915741 -0.01618862 0.0048461542 -0.032139532 -0.028023573 -0.0435241 -0.046091538 -0.054097153 -0.07693556 0.0677573 -0.036357105 -0.010152899 0.07842359 -0.022975855 0.008997013 0.0078598 0.054577734 -0.07864397 0.036075808 -0.017614169 
-0.004361241 -0.014612939 0.05514226 0.07397312 0.013224229 -0.020357776 -0.05399727 -0.02683596 0.024552308 0.0031147809 0.03167017 -0.003315085 0.067014694 -0.06799443 -0.030027604 -0.021005154 -0.01587955 0.025215577 0.076242425 -0.00066185225 0.041104816 0.04766523 0.041534297 0.061433457 0.05994173 0.009135124 -0.060451787 -0.020209048 0.05411649 -0.025843319 -0.07028909 0.024732778 -0.03765354 0.011903612 0.041461356 0.029329203 -0.032250904 -0.0034425855 -0.079707116 -0.03130741 -0.04497804 0.0514941 -0.0477292 -0.061233744 0.064010866 -0.053880062 -0.015927061 -0.050796952 -0.05116477 -0.028366696 -0.07916781 0.003934131 -0.035616573 -0.013736249 0.034881964 -0.0090264855 0.04244264 -0.03413228 0.05638335 0.06594863 0.07585319 0.08447966 0.043978527 0.055848274 0.0055462033 -0.056379803 -0.04903017 -0.005220905 0.0043066004 -0.05101979 -0.051695537 -0.056037355 -0.057230584 0.03497763 0.046136346 -0.05340931 0.036433328 0.07122856 -0.056815654 0.020000877 -0.052954376 -0.02976584 -0.009400423 0.021119172 0.03904244 -0.064034164 -0.06789725 0.038627677 0.07097422 -0.020418651 0.08705911 -0.033159323 -0.018627102 -0.03201385 -0.009401976 0.027762681 -0.001842463 0.04297856 -0.028632887 -0.07606396 -0.049568202 0.0031013414 -0.083916634 0.0021934435 -0.0055786087 0.057607695 0.059192605 -0.005544383 0.025085261 -0.008340025 0.0720338 -0.038492627 0.05064288 0.00028874612 -0.063214235 0.028596664 0.0131140435 -0.026438665 -0.059255414 0.036804922 -0.04036096 -0.008923814 -0.036223676 0.056156963 -0.064911686 -0.028554626 -0.048845015 0.045884006 
0.015532635 -0.061878376 -0.05759511 0.0082784435 0.0068404824 0.0026898235 0.065814056 0.03671437 0.056597132 0.0017463184 -0.014232817 0.00953855 0.03782054 -0.030426504 -0.033141784 -0.017471608 0.02452404 0.06322601 0.04353002 0.05612228 -0.024386331 0.027623234 -0.07965416 0.022154607 -0.010430187 0.08978447 -0.009885781 0.030403955 -0.0653172 0.06873412 -0.042766128 -0.03906376 -0.05839393 0.06840201 -0.052343074 0.009964734 0.06587171 0.06582933 0.027274042 -0.07450875 -0.0636877 0.006391637 0.07286078 -0.0014124201 -0.0023189087 0.05539467 0.018825911 0.041590422 -0.041436873 0.0593201 0.029207418 -0.034522604 0.01798359 0.07766863 0.0029294267 0.033849504 0.0509857 -0.0393348 -0.012272373 -0.047769025 -0.0015459806 -0.0033917883 0.04477052 -0.0960166 0.0146638425 0.015669035 -0.059766755 0.018758025 -0.004934553 -0.038223736 -0.059073243 -0.06458977 -0.04862346 0.030057713 -0.043278385 0.044125147 -0.024859384 0.008480677 0.010211615 0.007330408 0.05631321 -0.06699729 0.059460297 0.058048803 -0.062328998 0.031422757 -0.08347274 -0.043240264 -0.06642441 0.05758126 0.032732967 -0.035394117 -0.06653914 0.08820212 0.072526075 0.046737872 0.031322993 0.051865492 0.031017067 -0.08037859 -0.028112069 -0.008912832 0.004047827 0.0651324 0.015935954 0.05026238 0.061196577 0.054388944 0.07348653 -0.05707014 0.035704225 -0.014304976 -0.034754906 0.031246819 0.0070346054 -0.0284518 0.057711393 -0.07030261 0.07126885 0.071538515 0.03364129 0.03799773 -0.010733449 -0.043496802 0.06376553 -0.057344537 0.021589803 -0.011598632 
-0.037024632 -0.02462182 -0.04083117 0.012128753 0.05384726 -0.030588277 0.058812954 -0.06954839 -0.051657274 0.054281227 -0.083896905 -0.051851504 0.08099954 0.050117347 -0.08553359 -0.014333986 -0.0072022974 0.053151254 -0.04087407 0.007278447 -0.039636455 0.08112605 -0.07724191 -0.018455643 0.033144146 0.011913561 0.04341405 0.054857023 -0.040280335 0.065517716 0.0468326 0.018098839 0.055411924 -0.01414666 0.08579292 0.071750455 -0.05280671 -0.0102960775 0.026521802 0.08094127 -0.07664617 -0.053188562 -0.06700284 -0.042701215 0.04299082 -0.05135593 -0.05623858 -0.00054829195 0.056914285 -0.03168687 -0.0014381512 0.08786239 -0.06586858 0.08232706 -0.005195737 0.039886847 -0.03954728 -0.014815278 -0.03483176 0.041870594 0.03972926 0.03711069 -0.024732098 -0.015571708 -0.023698028 -0.06898809 -0.05016914 -0.013816593 -0.07888749 -0.01660829 -0.072463855 0.059180096 0.061466027 0.04753784 -0.026759423 -0.049801692 -0.014577884 0.039706826 -0.02827854 0.020926628 -0.023416419 -0.037201416 0.06499467 -0.0523826 0.0039812727 -0.026038779 -0.08730651 0.0663635 -0.019221203 0.010806364 -0.0033526928 -0.043793187 -0.053026713 -0.048008624 0.055562202 0.049277715 -0.015809415 0.015631218 -0.05524415 0.032015253 -0.0010497198 -0.010459833 -0.01799054 -0.003304392 -0.055988528 -0.048632964 0.038031764 -0.061609477 0.03554326 0.04585413 -0.011971192 -0.08245915 -0.053844616 0.019776117 -0.017414527 -0.025151212 -0.055999495 0.07800045 -0.020029336 -0.044163514 -0.064064525 0.07370006 -0.08846454 0.10093343 -0.0310621 -0.046673663 0.11285219 -0.01465993 
0.053276937 -0.033104237 -0.015404641 0.06613242 -0.06289291 -0.031897288 0.040751673 -0.06756986 0.035420272 -0.051378563 -0.08357689 0.06832614 0.029045312 -0.036892533 -0.00814411 0.061469194 -0.011030085 0.012305663 -0.013104412 -0.026200404 0.05195933 0.006219188 0.056881964 -0.058971953 0.047057338 0.116325006 -0.053581692 0.038806655 0.06389232 0.0068270564 -0.0832561 -0.090546235 0.064801976 -0.076359786 -0.017748391 -0.030270454 0.04600969 0.0070307683 -0.018668056 -0.0009301752 0.04591299 0.04499524 -0.019134512 -0.008863114 -0.07485917 0.06946074 0.014614768 -0.059299793 -0.07123715 0.008848436 -0.034862034 -0.016100312 -0.015690124 -0.0443726 0.07579405 0.057666924 -0.06763728 -0.04832841 0.020367444 -0.017736122 -0.05942151 -0.023215936 -0.0002563126 -0.10530354 0.06910873 0.047464803 -0.0076214597 0.067113414 0.034563463 0.032499947 -0.06732043 0.048646666 -0.0058094985 -0.024545774 0.09421129 -0.029993683 0.03017427 -0.06478012 -0.07603541 -0.019157972 0.026356325 -0.070650525 0.09079163 -0.10994752 0.009056385 0.10199228 0.018881278 -0.03151841 0.0001438762 -0.07207049 -0.07559499 0.028726093 0.080071926 0.035308756 -0.00011565194 -0.0013709143 0.05377819 -0.07987291 0.021890506 -0.009732604 0.018821195 -0.019634545 0.009606203 0.036457203 -0.0380015 -0.08006468 -0.07027672 -0.036265973 0.07438413 -0.027946439 0.033648748 -0.07820747 -0.013778932 0.028375914 0.0704851 0.03154956 -0.04095872 -0.05493415 0.048420586 0.074459784 0.061022233 0.017220005 -0.01856736 0.037991032 0.049326573 -0.06059395 0.12079109 0.015179342 
0.10225996 -0.046883963 -0.001287664 0.016319994 -0.048172805 0.040211193 -0.024007976 0.06804764 -0.011850509 0.012805369 0.04701315 0.084414355 0.06480846 0.040070508 0.041991565 -0.00991331 -0.05074668 -0.028486997 0.0672771 0.06509522 -0.045985103 0.12116939 -0.06076924 0.05190507 0.04168479 0.09414008 -0.04896671 -0.053529005 -0.055328365 -0.0031223074 -0.026999151 0.027755048 -0.042312145 -0.016628504 0.0014341001 -0.007872738 -0.0012302703 -0.084749766 -0.013920672 0.028096035 -0.022466019 -0.02070896 -0.07741554 -0.0872311 -0.0027229737 -0.022047345 0.07468291 -0.065584116 0.02238463 -0.05775095 0.058071762 -0.043752752 0.05640189 0.04311212 -0.06992888 0.056684725 -0.04485664 -0.007320513 0.0676545 -0.030955512 0.06692331 -0.07001583 -0.03614836 0.035125837 0.024842447 0.0410273 -0.003396213 -0.01798576 -0.051359106 0.00057798624 -0.033702485 0.061485022 0.050792895 0.019635513 0.09371567 0.023638077 -0.036137942 -0.051043957 -0.020961387 0.06906471 0.050208963 -0.04716385 0.0894429 -0.047246315 0.06969857 0.06301187 -0.004488745 -0.010809409 0.015099684 -0.07327541 0.045144465 0.020598114 0.008033795 0.010780261 0.023197213 0.04103344 0.0188641 0.0024864352 0.07168725 -0.00714407 0.06811031 -0.051564474 -0.10758008 -0.029674388 -0.016009968 0.056989823 -0.01157701 0.07351392 -0.0073186466 0.020562014 0.0133273145 -0.04127544 -0.04101575 -0.010387171 -0.04301505 -0.0701887 -0.04002743 0.0027474687 -0.059539974 -0.026346307 -0.054806374 -0.06966868 -0.06259936 0.07110184 -0.01677461 -0.0065914616 0.0016717797 0.00052301 
-0.03336806 -0.03386892 -0.053779762 0.055238105 0.053418748 -0.048028737 -0.025715917 -0.030963985 -0.06395296 0.046710458 -0.0072944146 0.0980866 -0.057503056 -0.0819369 -0.054657534 -0.039408408 -0.017384551 0.014049706 -0.010274725 -0.08339108 -0.0694734 0.04870079 -0.025789404 0.04357144 0.0044771433 0.09828448 -0.08579269 -0.0028665883 -0.03851476 0.023456141 0.027978437 -0.034248024 -0.03419561 -0.004080951 0.007468907 -0.05400075 0.04479276 0.062780656 -0.055657737 -0.04494691 0.022993416 -0.0010662973 0.007851156 -0.009531126 -0.0062748496 -0.056291066 0.0800631 -0.05246548 0.02687236 -0.035413183 -0.06106612 0.028050646 -0.065030575 -0.022045778 -0.014491618 -0.011906105 -0.07744879 0.06650862 -0.011269741 0.06611935 0.059121393 -0.07834458 0.0046118954 -0.059022766 -0.029905839 -0.06726495 -0.07511396 0.0021637585 -0.02989677 0.005330391 0.022495022 -0.0014310669 -0.040566113 0.054546542 0.01876615 -0.07440819 -0.0055273166 -0.0069110943 0.07351753 -0.05331911 -0.044793613 0.055059202 -0.0067348974 0.037150193 0.039965007 -0.022785421 -0.06042291 0.01435175 0.0009311223 0.02982108 -0.05042274 -0.01653444 0.0678552 0.040614672 -0.035307866 0.025155708 0.036349043 0.015436406 -0.08239316 -0.019562617 -0.018145554 0.06859831 0.034469355 0.040538102 -0.036803544 -0.07736944 0.013476627 -0.05197524 0.021426072 0.0036437232 -0.019024434 -0.019195534 -0.031024287 -0.08950843 -0.085684806 0.039089438 -0.0452352 -0.02532364 -0.04244045 -0.07894105 0.053145606 -0.011117548 -0.020588385 -0.018769342 0.026032517 0.014755957 0.06721426 -0.042395398 
-0.0074320394 -0.055043627 0.045585938 0.01081641 -0.031469718 -0.04601676 0.068040036 -0.014769745 -0.08136485 0.04508089 0.038881388 0.0063052108 -0.05420607 0.022308748 -0.030997591 -0.028127415 0.03194695 -0.08673357 -0.02824886 0.017017247 -0.034982964 0.058422267 0.05190913 0.0066693076 0.048252113 0.12790659 -0.08237701 -0.065747045 0.009196212 -0.04795529 0.04495297 -0.01995918 -0.036320016 -0.062780954 0.030948881 -0.022125702 0.075135 -0.078152 -0.019013725 -0.006280288 0.080128424 -0.043613087 -0.04101859 -0.028930781 -0.06303372 0.021527104 -0.07811704 -0.0053621316 -0.00092142913 0.07141244 -0.0011385141 0.07277641 0.067910895 0.074851364 -0.01870066 0.06209234 -0.029603891 0.08691364 -0.0013989136 0.03311479 0.031434737 0.056857854 -0.09449404 -0.07647888 -0.08491976 -0.028782947 -0.038003184 -0.018442806 -0.019645363 -0.045760546 0.0080271335 -0.013598369 -0.061837878 -0.029212397 0.053754006 0.021721438 0.07890452 -0.011790149 -0.01427149 0.07409657 0.062238656 -0.037850294 -0.0057456465 -0.049734134 -0.033133693 0.0885867 -0.08055009 0.040655617 -0.0037263227 -0.05502613 -0.046700064 0.05085095 0.06043846 0.04731265 -0.06794835 -0.04353653 0.096659005 0.012247433 0.004337111 0.045354757 0.020870477 0.04527154 -0.050717894 0.017614543 -0.08387287 0.025501605 -0.032862004 -0.018523857 -0.029548423 0.006404927 0.018242223 0.005002582 -0.038787358 0.0684865 -0.05938271 0.06404121 0.06717679 0.070332296 0.0748375 -0.056632444 0.07946894 0.00259725 -0.08583111 0.026419101 0.020350328 -0.04871749 0.09647364 -0.10362413 
0.021322774 -0.010520867 -0.06658325 -0.08085513 -0.010533147 0.032143332 0.08076034 -0.039432064 -0.04360066 0.012605226 0.06574354 -0.034164105 0.07013922 -0.030193195 0.023255594 0.0011370826 0.04124099 0.039886493 0.08067525 -0.023881223 -0.027514573 -0.020445643 -0.05900724 -0.052670978 0.06345711 0.055926986 -0.015285176 -0.063764386 0.08028231 0.04125254 0.06846726 0.0416877 0.031609062 0.021744188 -0.014632104 -0.0036725402 0.0040570186 -0.014068908 -0.018103488 -0.07229109 0.04480966 0.07989437 -0.067450754 -0.0068792365 0.026248649 -0.038822796 0.024557337 -0.08800093 -0.029806286 -0.06893982 0.04883861 -0.027941497 -0.044861957 0.085342705 0.04512488 0.044347666 -0.051880784 -0.025221584 0.07078711 -0.04577604 -0.04585198 -0.0784892 -0.029777944 -0.09763028 0.042187005 -0.06310574 0.02238331 0.077172205 -0.002674543 -0.054066174 0.0454714 0.06973878 0.050134927 0.011195019 0.01014534 -0.0015851632 0.059340592 -0.05066935 -0.06397517 -0.06884299 -0.00956472 -0.06326496 0.070233285 -0.113881044 -0.05788078 -0.021847533 0.043592643 0.047504872 -0.010538168 0.055010576 -0.078630716 -0.02213481 0.019103713 -0.05841605 0.03996202 0.00071071833 0.0003570058 -0.028985964 0.0066047166 0.059570365 0.05210013 -0.020893835 0.020261964 -0.051607754 -0.01827711 0.07273687 -0.051459286 0.051074352 -0.07718964 -0.0857997 -0.07514273 0.048247226 0.027369678 -0.02162339 -0.024303883 0.042309746 -0.0069017964 -0.031660605 0.04156462 -0.016375847 0.06048086 -0.07373769 -0.026730837 0.047867116 -0.024244629 -0.029651087 0.017192965 -0.10499693 
0.059325736 -0.06939052 -0.04624165 0.024030028 0.024369292 0.01102674 0.016345546 0.0064277337 -0.0201943 0.060478494 0.021018256 0.00978633 -0.010473127 0.0036843107 0.009461216 0.07275459 -0.08106378 0.020923477 0.06435696 -0.05095423 0.06321775 -0.0077925944 -0.028126562 0.067216285 -0.007627934 0.1150231 0.022715101 -0.005506496 0.04319087 -0.023043904 -0.07916764 -0.021035383 -0.022962466 0.017732153 -0.044559542 0.04980894 -0.035358135 -0.038542733 0.06598363 -0.07925255 0.058314197 0.021784514 -0.035816543 -0.04960809 0.029995428 0.026991084 0.07228436 -0.0035971415 -0.006101788 0.061233647 0.012555912 0.007922518 0.02943068 0.06651866 0.07148873 -0.07251837 -0.06475555 0.10724828 0.01965765 0.026738524 0.06698435 0.020532677 0.033998825 -0.06163929 -0.037457354 0.05714708 0.052836902 -0.036534816 0.048192423 -0.054877356 -0.054405596 -0.022744918 -0.05796081 -0.021437954 -0.012935816 -0.05187066 -0.04769986 0.02884109 -0.079136774 0.08558557 0.0786934 -0.033091024 0.06542029 -0.054763354 -0.07272553 -0.04289056 0.066331156 0.022368584 0.0021315103 0.0520986 -0.028065816 -0.0051534474 0.03143463 0.08512216 -0.072171055 0.00859201 -0.04267292 -0.030608969 -0.04889328 0.008344374 0.036223345 0.05887366 0.01977021 0.06723977 0.00068627635 0.06761519 0.036136545 -0.06323459 -0.062528096 0.056568604 -0.025365312 -0.074728005 -0.046667468 -0.04777684 -0.04205856 0.051880255 0.007862763 0.05084511 0.075511105 -0.01688388 0.020867433 0.037228197 0.011242494 0.0045334897 0.07123837 0.023075618 0.008645046 -0.08377919 
-0.048117876 -0.015907055 0.040498782 -0.07862997 0.014372401 -0.054045305 0.056552686 0.0441586 -0.02653043 -0.057322655 0.012942427 -0.0277652 0.07488994 -0.06913448 0.017919295 -0.07543813 -0.045468327 0.05446866 -0.026035601 -0.039090224 -0.016084053 -0.034074217 -0.023007696 0.013002166 0.06972679 0.009576966 0.057961307 -0.058974706 -0.01429951 0.02669146 0.036858033 -0.0046303626 0.04808826 0.01312295 0.06874919 0.062056415 -0.04763192 0.06790407 -0.029195495 0.0014476627 -0.029442098 0.074428104 0.034794454 0.023345463 0.037064545 0.0397001 0.04572984 0.0021615564 0.041231714 0.06526429 -0.06961509 -0.076672874 0.06936498 -0.01939533 0.05807174 0.021021599 -0.079515256 0.08504878 -0.043331966 0.029154576 -0.019492444 0.06251071 -0.014877506 0.06484019 0.023779428 -0.08175773 -0.03629948 0.06897061 -0.07476424 -0.05553308 0.026583666 0.066337086 -0.050887734 -0.010808177 -0.014543216 -0.026604801 0.072036505 0.046751965 -0.004215417 -0.0016520023 -0.0068162456 -0.06651571 0.04205739 -0.055819683 0.053573173 -0.065650634 -0.08697087 0.07040363 -0.065035 -0.04942075 0.03946989 0.030163534 0.025753003 0.059331317 0.035117358 -0.0003189817 -0.014327518 0.0024753872 0.029695563 -0.08076076 -0.031237233 0.012442246 0.012067106 -0.027329873 -0.04873476 0.001364541 -0.038380604 -0.07380898 -0.065335974 -0.06506059 -0.011303126 -0.02311777 0.046980247 0.03490483 -0.006278432 0.05946617 0.09340107 0.0053750426 -0.008066237 0.066016175 0.08106419 -0.06313433 -0.0050276956 0.015655493 -0.063604295 0.05350005 -0.019157985 0.010924326 
0.08191956 -0.044297628 -0.09373738 -0.0016059906 0.0031097308 0.07662236 -0.021001898 -0.029745327 -0.018077012 -0.057771686 -0.040973093 -0.0012883235 0.024179438 0.05231089 -0.038004518 -0.053429145 0.07709203 -0.07804094 0.06481413 -0.07264333 0.03677421 0.053759083 -0.003903966 -0.0025416892 0.07741324 0.039490186 0.031909663 0.0056525087 -0.069680855 -0.0728227 -0.0904817 -0.010432855 -0.04944342 -0.07932351 0.08012039 0.02552373 0.043616436 0.02274542 -0.009848572 0.009640858 -0.07537559 -0.03885366 -0.04665774 -0.026631027 0.039595768 -0.03411158 -0.06738717 0.049714938 -0.00403126 -0.06890971 -0.08200778 0.016219351 0.06112542 -0.017209888 0.040526867 0.06283528 -0.013549981 0.055470753 0.06728303 -0.024712492 -0.04401374 0.025827782 -0.057073195 0.0417088 -0.04114286 0.03250813 0.06449414 -0.00948044 -0.02087705 0.06665475 0.089484334 0.0051023844 -0.05488383 -0.07971936 0.039543428 -0.02360659 -0.027672142 -0.054264452 -0.055354662 -0.047813505 -0.056726232 0.048832066 0.08408725 -0.07927195 -0.0022039632 -0.017844623 0.0057118605 0.028987352 0.066583216 0.07388287 0.09171082 -0.01523187 -0.051568832 -0.060331907 0.067062765 -0.015120208 -0.074418716 -0.042776436 -0.031513125 -0.043623194 -0.017997347 -0.02577246 -0.07118422 0.075264804 0.057837337 0.0716636 -0.03724975 0.054671332 -0.06713034 -0.002311488 0.06884775 -0.019127183 0.031969815 0.04792437 0.061406028 0.03933754 0.0859672 -0.07598641 0.003407605 0.032753006 0.051993478 -0.060199916 -0.033158734 0.08347127 -0.058287777 0.068272404 -0.038883615 0.011579019 
-0.025988944 -0.01594374 -0.06667778 0.035330303 0.0649359 0.05956071 0.03778193 -0.051759712 -0.069026574 -0.07674389 0.07281412 -0.012832158 0.019428497 -0.008134254 -0.069061525 0.02348968 0.03156703 -0.056014284 0.09706011 -0.010840671 0.062287502 -0.06542527 -0.07332934 0.00073609233 -0.024229497 -0.0037830826 0.05539498 0.070217066 0.0018800163 -0.03635316 -0.009254112 -0.07417837 0.053132813 -0.045433372 -0.07151793 -0.06408405 -0.07179597 -0.08077412 0.012243986 0.041859627 0.076656215 0.025458269 -0.0609614 -0.01906596 0.027223622 -0.010229461 -0.0058100373 -0.013829968 -0.08057765 -0.046656374 0.043482475 0.03139962 -0.077269666 -0.07122467 -0.024165586 -0.024732972 0.062246207 -0.0037681225 0.0346691 -0.018096417 -0.015040383 0.07367781 -0.05420451 0.014938711 0.06593115 0.010068345 -0.043463293 0.03909075 0.05816239 0.049766786 -0.007811866 0.025701001 -0.06169102 0.01943037 -0.01839978 0.039181486 0.08796286 0.056632094 0.054177348 -0.042722292 0.06826528 -0.070612006 0.082984164 -0.06457548 -0.06098607 0.035129998 -0.048636224 -0.018200113 0.010329545 -0.051969282 0.0053154123 0.05313059 -0.017142994 -0.01751675 0.025971279 -0.07864741 0.015186897 0.07395608 0.07728344 0.047595073 -0.044230558 0.07869928 -0.017323649 0.067357846 0.058388304 -0.028948992 -0.07462736 0.028123947 -0.055457525 -0.022682229 -0.0048984094 0.07049037 -0.04930082 -0.0744768 0.04816397 -0.0027119643 0.049911305 -0.072380275 0.03559015 0.038843937 0.08755641 0.04186079 0.04221262 0.06313027 0.032636352 -0.035103925 0.06159574 -0.056848783 
-0.05140006 0.07184731 0.054847676 -0.084071375 0.06849214 0.027634643 -0.07297719 -0.03751848 -0.046094634 0.008421307 0.06892947 0.09504194 -0.058361012 0.071363844 -0.028041508 -0.08416034 -0.023187239 -0.08496851 0.088689215 -0.014125288 0.06820045 0.057253122 -0.06659151 -0.0023763212 -0.031972397 0.020210275 -0.02262678 -0.049892586 0.035671953 0.008339681 -0.07616755 -0.031846985 0.037494373 -0.0670844 -0.00023200523 -0.0331588 0.05764452 0.028940529 0.03768743 -0.018308438 0.008423127 -0.05978035 -0.0685315 -0.047652002 -0.003539819 0.04090698 -0.02454684 0.09226473 0.052927908 -0.057415955 0.036844768 -0.043297753 -0.022252945 0.056209423 -0.045365717 -0.06055858 0.059060507 0.04990107 -0.07428301 0.033600643 0.007990837 0.031839173 0.0028081667 -0.0101956725 -0.016183913 -0.031615205 -0.06336573 0.040329188 0.011885302 -0.075237006 0.010024895 0.0048225466 -0.04019268 -0.04451686 0.045836087 -0.0051259845 0.03779761 -0.0131512815 0.029643714 0.01645539 0.071493186 -0.02291637 -0.024020204 -0.0027984323 0.030302286 -0.04017971 -0.081231475 0.07308337 -0.05186922 -0.06312511 0.071638614 -0.056569535 0.06107226 0.03330499 0.030109158 -0.013599545 0.017433187 -0.030388767 -0.037547152 -0.05953572 -0.05006732 -0.012838565 -0.026402252 -0.0709762 0.012146894 0.030139644 0.02840645 -0.07031045 -0.07159009 -0.08130432 -0.07375972 0.031959932 -0.08815175 -0.06274934 -0.07815678 -0.019456204 0.08988671 -0.03710544 -0.06269436 0.011296719 0.059352178 0.054249503 0.021773018 -0.008171266 0.010134303 -0.06177912 -0.048104364 -0.064525075 
-0.03019452 0.031377472 0.054367583 -0.030047676 -0.0013398901 -0.041152887 0.0701802 -0.07575361 -0.008160977 0.029780738 0.02259251 0.047202002 -0.04941206 -0.0010874068 -0.05398631 -0.025612378 0.0009566471 0.06547272 0.018630378 -0.07211628 -0.028667793 0.0011466162 0.014661403 0.014806577 0.04101833 -0.033131678 0.054240897 0.014429996 -0.022296427 0.043046243 -0.03770512 0.06615434 0.032416906 -0.029492391 -0.019210583 0.072795145 -0.08492913 -0.00875895 -0.026273206 -0.02147435 0.045084618 0.015039474 -0.07327855 0.03519139 0.012469207 0.00092980266 -0.034678485 -0.055752795 -0.06520347 0.039804406 -0.038920954 0.0102493875 -0.009697528 -0.06074472 -0.04049376 0.056750774 -0.012014956 0.104228936 -0.0036379993 0.045927726 -0.0027667657 -0.02453156 0.08345806 0.028315049 -0.080841504 0.016856221 0.077544846 -0.057631962 -0.08270168 0.07654954 -0.034913734 0.01129614 0.044362225 0.026591055 -0.03470194 0.059509583 -0.062254243 -0.07954468 0.02124981 -0.037313886 0.031205148 -0.054759994 0.06666271 -0.0107308775 0.0057661063 0.062700465 0.0041789934 -0.05453069 -0.0072219 -0.026941117 0.052910727 -0.023468826 0.07285623 0.042952504 0.06759763 0.009727322 0.012064807 -0.04200912 0.06756753 -0.02158904 -0.05421121 -0.058699787 0.047171485 -0.025746547 0.008411813 -0.030255776 0.057407223 0.03169351 -0.055572823 0.041228622 0.05941917 0.10246811 -0.046557218 -0.042567868 -0.07049816 0.014741533 -0.043781254 0.028617226 0.0354039 -0.054118 0.06293879 -0.020538088 0.044304777 -0.04557255 0.018375091 0.040334143 0.009281204 0.036712423 
-0.009048733 0.02742313 -0.027773026 0.051576946 0.033008024 -0.014348187 0.024679735 -0.0046884827 -0.072405845 0.0020197537 -0.02977739 -0.03168477 0.01106119 0.0236914 0.0511238 0.037525948 0.0616943 -0.0510946 0.04953539 0.070320815 -0.03580028 -0.019342566 -0.014711892 0.055170078 -0.07184223 -0.03298465 -0.05910498 0.056831952 0.04117736 0.045426108 0.053643335 0.06935535 0.08978717 0.05908203 0.02137185 0.024641037 0.0077824104 -0.07331234 0.031222269 0.07229414 -0.042949125 -0.0145459995 -0.03424168 0.046514314 -0.0572887 -0.048157666 -0.042136047 0.07823163 -0.03881631 -0.0070443824 0.029888105 -0.008140855 0.014635125 -0.08138529 0.015344866 0.054339815 0.031558968 0.048012476 0.05987502 0.04143273 0.023009174 0.039145134 -0.04678571 0.0029109537 -0.061323885 0.034381613 0.0023738518 -0.06542368 0.02097978 0.027039781 0.051381957 -0.051929723 -0.03904405 -0.05352828 0.056057215 -0.059426963 -0.048301153 0.016221743 -0.026659032 0.017238688 -0.022223052 -0.07216833 0.040217668 0.0029543962 0.0690024 0.013640023 0.04637602 -0.05689301 -0.06455323 -0.0645366 -0.00050154515 0.050107665 0.011051282 0.016381182 0.02315594 -0.050208647 -0.0049499753 -0.04372813 -0.0039588935 0.0065925103 0.00700897 0.014273196 0.09907737 -0.023081072 0.009349283 0.058308236 -0.030027565 0.06172981 0.030872721 -0.0895764 -0.04105437 0.04465465 0.05240041 -0.05706066 -0.00241502 -0.005343923 -0.033052485 -0.044074327 -0.022905927 0.0392557 -0.0013242903 -0.060462512 0.058316708 -0.0012266164 -0.014364001 0.018352024 -0.053477015 0.0067619267 
0.063606575 -0.032717653 0.030743634 -0.04757364 0.01949016 0.07794558 0.025913186 0.059854448 0.04379884 0.056816686 0.06915648 -0.05576481 -0.051994175 -0.026153414 -0.027856927 0.06699238 0.07082971 0.06674018 -0.043174054 -0.07447958 -0.048531592 0.023622973 -0.018914578 -0.08157786 -0.056612678 0.07002283 -0.049771674 0.016278401 -0.08626074 -0.018248372 -0.034540974 -0.03765795 -0.025411353 0.072330326 0.060453743 0.03562977 -0.06440268 -0.021789514 0.049695037 -0.030644841 -0.026569895 -0.043291066 -0.08304083 0.071882784 0.035044346 0.065829076 0.05661156 0.07596847 -0.08638367 -0.015702121 -0.042352017 0.005067708 -0.023551635 0.033921685 0.055920355 -0.09051444 0.04493713 0.039334614 0.078261904 -0.021010946 0.07449906 -0.06675213 0.08849402 0.05465921 -0.060743917 -0.038155355 -0.0022151247 0.06772356 0.060960982 0.071316786 -0.034964137 0.003972965 0.058097363 0.05338148 -0.08178563 0.009942107 -0.04945648 -0.021095863 -0.017966185 -0.019223869 -0.005472392 -0.07626648 -0.012528878 -0.038694322 -0.010658191 -0.051761754 0.055338237 -0.010311511 -0.0024629936 -0.059679117 0.04773119 -0.06515566 0.04537098 0.01733991 -0.055177085 0.023914203 -0.07264262 0.015494031 -0.024865983 0.030762035 0.025229774 -0.057784367 0.077918105 0.05383069 0.052503306 0.061819572 -0.005162605 -0.0011974642 -0.03282278 -0.08457655 -0.007133727 0.05866793 -0.07961919 0.026149139 -0.033330616 0.00020713071 0.045805175 0.061770953 0.04860892 -0.03584197 0.07555134 -0.019850243 0.07593679 -0.056376852 0.07192487 -0.0029955208 -0.04858616 -0.004867723 
-0.017209768 0.07389111 0.0022260097 -0.0025846993 -0.05449947 -0.0043070093 -0.034819886 -0.032011498 0.019098792 -0.03336431 -0.059161395 -0.008651195 0.037989963 0.007814861 -0.037200302 -0.019801833 -0.053059153 -0.03931222 0.011498194 0.049484286 -0.070018895 -0.036530007 0.04821414 -0.021932589 0.07906725 -0.049307857 -0.062897645 -0.028238593 -0.037410833 -0.05529789 0.008111079 0.11021477 0.050937656 0.0060051363 -0.026146555 0.07754292 0.045588985 -0.02430995 0.06477139 0.0074081346 -0.002209708 0.0345172 0.06958918 -0.046662875 -0.058123376 -0.0783375 0.07663194 -0.050727025 0.044617277 -0.056325737 -0.057015933 0.0018689901 -0.0822715 -0.05194983 0.042381607 -0.0111685945 0.0033090902 -0.042533603 -0.025484823 -0.04570234 0.040937148 -0.018437928 0.018760959 0.10480446 0.035542026 -0.019086938 0.0012117401 0.06717726 -0.06734006 -0.07391582 -0.016953418 -0.056551274 0.018183114 -0.07576618 0.040175762 -0.01026798 0.040413663 -0.027360128 -0.026513549 -0.028469376 0.06387285 -0.0397363 -0.014869898 0.069820926 -0.0019289745 -0.053696293 0.059727866 0.029098315 0.007526714 -0.019217728 -0.06728524 0.06498144 0.08157445 -0.017916858 -0.0016446533 0.0031088218 -0.008161621 0.06816594 0.0049476516 -0.07652915 -0.0034284517 0.0073992237 -0.020074269 0.06353112 0.047666978 -0.023292223 -0.020692272 -0.038604185 0.034710243 -0.07068334 0.04594927 0.069114916 -0.027592434 0.0959946 -0.00054785114 -0.008188738 0.048329674 0.038725257 -0.0542484 -0.06876466 -0.05546652 -0.008199111 -0.03181817 -0.04110048 -0.027278125 -0.041118428 0.0041001122 -0.08293823 
0.07920716 0.06149096 0.04461008 -0.065421484 -0.008969881 -0.023229416 -0.06803997 0.036390085 -0.08018001 -0.046813056 0.017905887 0.06819152 -0.032587506 0.0583703 -0.069131985 0.05329281 0.013054706 -0.034880824 0.0065774475 -0.002572936 0.041788265 -0.07775958 -0.073199 -0.0006397676 0.035059445 -0.021038814 0.073304035 -0.045235686 -0.08598925 0.03347738 -0.041055266 -0.0013460376 0.080898866 0.06756967 0.07077126 0.058712207 -0.06809599 -0.07907052 -0.03263986 0.08109153 0.048295774 0.00045918673 0.01192149 -0.056416977 0.0038228882 0.029459946 -0.034170855 0.020796848 0.038718536 -0.045881104 0.041037165 -0.082200244 -0.027336735 -0.063346535 -0.030782804 0.025063464 0.020231651 0.03836445 -0.05519265 -0.06175682 -0.059007496 -0.05844747 0.09707304 -0.031849463 0.0669664 -0.069481164 0.007070452 -0.08197299 -0.058648147 -0.048973124 -0.010044014 0.03019585 -0.006754127 -0.011554152 0.040782467 -0.045758594 0.030051762 -0.079163074 -0.030550873 -0.09524162 -0.009723067 -0.009138085 0.093871005 0.030211942 -0.07900187 -0.040813062 -0.058666613 0.066120245 -0.05353905 0.03448699 0.040138025 0.01542262 0.069647364 0.01921523 -0.076907724 0.07938444 0.042961106 -0.016815174 0.030115584 -0.06861383 -0.041186363 0.07162108 0.07583448 0.0176223 -0.045357417 -0.036202963 0.026181333 0.047491178 0.00034386112 0.053704154 -0.07132345 0.10748783 0.028652979 -0.023175774 -0.048003424 0.023884652 0.08586781 -0.06957425 -0.031169258 0.012100458 0.088165574 0.069032125 -0.04790008 -0.05720444 0.028014744 -0.024634365 -0.024553683 -0.068114854 
-0.048004612 -0.011057996 -0.012423753 -0.049135868 0.022276193 0.022179231 0.029825307 0.051107313 -0.0017834118 -0.053290293 0.033257995 -0.048130896 -0.010239135 0.004862032 0.023413913 0.060444694 -0.07580542 0.04503772 -0.016166452 0.046264693 -0.06992219 0.012574859 -0.033332042 -0.039687112 0.024115205 -0.017444914 -0.055343688 0.06551005 0.029687917 0.066520624 -0.06332581 0.019375134 -0.038032483 0.05413024 -0.03541032 0.0050410703 0.04507304 -0.021206753 -0.00014018267 0.062071644 -0.031600773 0.012920998 -0.029669981 -0.042723652 -0.05316612 0.0035136342 -0.02589234 -0.021040814 -0.083206885 0.058324136 0.07191581 0.045055766 -0.061542094 0.02836565 0.052635126 0.054586716 -0.06407897 0.07475744 -0.04869241 0.006037995 -0.07166358 -0.0730686 0.030936468 -0.03654488 -0.022795133 -0.06531716 -0.07411212 -0.027047329 -0.05143783 0.05413612 0.10033187 -0.03663223 -0.031679258 -0.055193 -0.009782049 -0.004971333 0.025836784 0.0096215485 0.015292286 0.032932665 -0.057802584 -0.019729048 0.047939885 0.08876873 0.056479406 0.036238853 -0.02680463 0.059835654 -0.035479173 -0.069454245 0.030773379 0.0537704 -0.04922286 -0.08349027 0.015298721 -0.05696398 0.049144965 0.01697714 0.043555748 -0.020615881 0.017832682 0.07991966 0.041994337 -0.024933893 -0.0025969169 -0.06511496 -0.03257905 0.026418898 0.01624856 -0.019326475 -0.027105797 0.02860166 -0.04649498 0.06847379 -0.014530267 -0.08088676 -0.06473414 0.06893756 -0.032551948 0.057165198 -0.008064748 0.04620456 0.05454113 -0.02037437 -0.06383093 -0.041518208 0.0035871519 0.007383081 
0.012092239 0.06386839 -0.057684455 0.047318798 0.0020642653 0.019894525 0.06607818 -0.052492294 -0.039449878 -0.014232806 -0.087947 -0.0960705 -0.000867149 0.032066505 -0.07462255 0.05040024 0.014494091 -0.07172552 -0.04570032 -0.028587794 -0.00036674738 0.022323621 -0.07634296 0.061527032 -0.031554863 -0.05029726 0.034118377 -0.0005527701 -0.036518946 0.035172284 0.04607611 0.078002356 0.0046169166 -0.04024533 0.041713778 0.03596659 -0.03900036 0.048561133 -0.022522137 0.037691064 -0.061722785 0.042363174 -0.00213793 0.013745109 -0.01728239 -0.013000891 -0.037858628 0.0015538952 0.05859881 -0.055644333 0.072934724 0.07608668 -0.045870468 0.017352898 -0.0735399 0.031007437 0.034286086 -0.0132999495 0.022728227 -0.05436895 -0.057356566 -0.0609869 0.026878921 -0.011857946 0.017796531 -0.0010088017 -0.052393083 0.035600852 -0.039994977 0.02171436 0.04253541 -0.06037408 0.029900545 -0.0023222417 -0.05551732 -0.041276827 -0.02110693 0.03302399 -0.041607387 -0.08279151 0.061288364 0.009103425 -0.08461252 0.063147284 0.054437622 0.040943675 0.045668837 -0.015419004 0.035940804 0.0635448 -0.035422716 -0.06191555 0.05994957 0.030712375 0.0110252015 0.0806155 0.023571037 -0.04257934 0.042887043 -0.075260356 0.0005489588 0.065015905 0.031654704 -0.051230036 0.004408732 0.032510966 0.04475118 -0.020579142 0.021316933 -0.015182141 -0.045151614 -0.059812028 0.05705797 0.06300411 0.06477569 -0.004629125 -0.09781802 -0.07931273 -0.046931386 -0.07442699 0.102627926 -0.07227212 -0.04225363 0.056361195 0.03990423 0.055405565 0.001729171 0.04105986 
0.0063898903 -0.005909193 -0.04166552 -0.08376916 -0.043595664 -0.033957977 -0.07565657 -0.03677172 0.0023858196 0.07463322 -0.051774442 -0.069861114 0.060809594 -0.051819928 0.0111465445 -0.037342265 -0.001611501 -0.07137603 0.03792532 0.033667345 -0.05225195 -0.03757733 -2.8422439e-05 0.056174263 0.03208317 -0.018373523 0.01893473 0.034142766 -0.024193918 0.07528303 0.014941743 0.027015576 -0.074129246 -0.025769046 0.043080438 0.0022625402 0.052134104 -0.05498508 0.048566557 0.04647223 -0.06460825 -0.02146 -0.03743759 0.045284923 -0.031666085 -0.05507165 0.011704065 -0.017613545 0.041555375 0.066473015 0.052366078 -0.048172347 -0.035666905 0.03590122 -0.061356343 -0.027201924 0.053939212 -0.047976322 0.065190144 0.07612903 0.03307277 -0.077497356 -0.00893367 -0.0441403 -0.0030135831 0.054868594 0.05240225 -0.054856982 0.06837815 0.05636727 0.05273962 -0.07057167 0.011492788 -0.032325227 0.03370056 -0.08081769 -0.030275308 0.04839121 0.01999337 -0.0453686 -0.06480632 0.03441877 0.03064513 -0.0062976377 0.04150662 0.048031986 0.032961506 0.0140865715 0.0322374 0.034335975 0.008092473 -0.043077126 0.06641446 -0.05163439 -0.061384488 -0.014714651 -0.03398304 0.048232038 -0.01573971 -0.033733558 0.054339193 -0.047053196 -0.00677461 0.0056826547 0.025920695 -0.009601314 -0.048435595 0.037390374 -0.08126534 -0.015958149 0.06534557 -0.02747636 0.04271966 0.0659319 -0.06703272 -0.05411649 -0.03852673 0.029609643 -0.0050900355 0.014114097 0.06263485 -0.047888223 0.017042495 0.018777998 0.06925133 0.05726678 -0.059212476 -0.008184382 
0.004316834 0.061381213 0.028329829 0.038671 0.0070028603 -0.04182609 -0.07967912 0.074706696 0.04517983 0.052748337 0.06756285 -0.032528188 -0.056841202 0.08920523 -0.0065303273 -0.05735502 -0.034238324 -0.020071998 0.06387469 -0.082545355 -0.014637664 0.028165055 0.008662024 0.057750758 -0.05398917 0.018411929 0.017881697 -0.022353722 -0.0043254253 -0.0514135 0.048144907 0.033154678 0.05716912 0.045570564 -0.020863399 -0.05006653 -0.032353606 0.066910885 -0.06598905 -0.04734209 -0.022541013 -0.048728473 0.066307254 -0.056566585 0.061964657 0.038590677 0.07313321 -0.04629266 0.0248745 -0.03091463 0.049901627 -0.07883708 -0.0005381699 -0.033091348 0.022426859 -0.045997772 0.029678216 0.0002633499 -0.07118653 0.07377101 0.04299186 -0.034472726 -0.037669595 0.07464442 0.02353698 0.05794672 0.07623657 0.03413699 0.0027278897 0.028703995 0.052709 0.03652202 0.05375766 -0.056656983 0.07335103 -0.07794839 -0.047501657 0.003949834 -0.029736586 0.051146924 0.011434637 -0.0336855 -0.029971797 0.044216048 -0.049294166 0.019962199 0.02761808 -0.0024284457 0.013188365 0.07123509 0.07688596 -0.034106012 -0.07858825 0.06461576 -0.05098239 0.06412337 -0.024903312 -0.018793628 0.06391534 0.09654321 -0.009894788 -0.062314074 0.046044506 -0.052388325 -0.011314252 0.008359636 -0.016578697 0.052150663 -0.06588687 -0.013683127 0.013301229 -0.0026871136 0.019940617 -0.01932343 -0.08855557 0.031378813 -0.038631767 -0.0765355 -0.055817816 0.04172878 -0.07294852 0.026270658 -0.04141352 -0.031153776 -0.082493864 0.0337819 0.0033666084 0.048210174 
-0.0031650062 -0.07096676 -0.014507707 -0.025366653 -0.045916725 0.07577131 -0.032903865 0.06119724 -0.011835277 0.09311898 0.016007056 -0.06255991 -0.025422662 0.07386107 0.06919124 0.02624079 -0.06804049 0.05357825 0.011257826 -0.05481734 -0.058506772 0.013307788 -0.069854505 -0.0338854 -0.04491732 0.039791472 -0.03263898 0.061997116 -0.00143864 -0.019425187 -0.018988753 0.0014049134 0.023063183 -0.043077417 0.034292717 -0.01053369 -0.0048895595 0.06476577 -0.020945601 -0.020686392 0.0481743 0.021082051 0.002324872 -0.08270786 -0.07959118 0.054768063 -0.07034593 0.035964247 0.0003186191 -0.07363955 0.015796004 0.05824718 0.09737344 0.030094136 -0.0022548437 0.05139816 -0.07722199 -0.0029524658 0.004404895 0.047714688 0.07827867 -0.099200964 -0.053309098 0.011117166 -0.03419668 0.05380688 0.07397797 0.036779065 0.05005166 -0.03467448 -0.08117934 0.046011828 -0.07921294 -0.033470344 -0.022481045 0.058967985 0.028031146 0.08584092 -0.054958273 -0.04058645 -0.0065838397 -0.02800946 -0.049094703 -0.02070774 0.032583375 0.02054163 -0.029935127 0.06041658 0.052986704 0.07643839 -0.0017768259 0.048209377 0.019099034 -0.0008833711 -0.06174338 -0.0104065165 0.0045067095 -0.05565027 0.040178865 0.08502411 -0.013163872 -0.03405289 -0.0043178713 -0.033486124 -0.0076975613 -0.05900674 0.0655435 -0.08429257 0.013703168 -0.05651247 -0.07094808 0.059898388 -0.064442776 -0.041155543 0.019927999 -0.114904895 -0.011948106 -0.015646502 -0.059092738 -0.08103103 -0.0127826305 0.07786795 -0.08477996 -0.07486773 0.008607675 0.0014648363 0.05374196 -0.04706166 
0.060123548 0.06367244 0.025004618 -0.050553095 -0.043457627 0.03324855 0.028916232 -0.056558117 0.06091528 0.06994006 0.0028785518 0.00081797974 -0.031694897 0.0568796 -0.08819032 0.02544333 0.015177667 -0.013094386 0.057862304 -0.037398286 0.06383171 0.055415194 -0.075413674 -0.03047719 0.022828594 -0.008590239 -0.045009047 -0.03433881 -0.021459803 0.07714804 0.07100657 0.051518753 0.052660745 -0.0123871295 0.030776074 0.007671699 -0.04532438 -0.041236512 -0.005172476 0.022741377 0.020565026 0.0047431663 0.064460196 -0.030034713 -0.08134215 -0.02363817 0.080324106 0.033760767 0.06552701 0.071323015 0.034191385 0.016543062 0.05827121 0.059586 -0.06495348 0.009554276 -0.08066028 0.012963336 -0.06740689 0.011482462 -0.043836214 0.045458693 0.037535727 0.01027222 -0.009997729 -0.006871191 0.037201226 0.08851553 -0.068042435 0.052918993 -0.080905885 0.050830916 0.01887091 -0.07752587 0.019327408 -0.050640956 0.02327393 -0.0027097855 -0.036677115 -0.019950459 0.062587164 0.030742832 -0.052851193 0.07359321 0.023571894 0.00039533104 0.07163624 0.00093965844 0.02602728 0.024853628 -0.066984504 0.07191252 0.028071947 0.042048473 -0.044070173 -0.040306296 -0.057045974 5.193069e-05 0.0124779185 0.10480736 0.00084373355 0.057938777 0.0225052 -0.07613402 -0.055807676 0.05871621 -0.06411926 0.020061301 -0.066611916 0.051430766 0.088825636 0.01146644 -0.0024546105 0.002811136 -0.0041810717 -0.03701635 0.00669021 -0.03833437 -0.06804369 0.06354349 -0.0695066 0.026607163 -0.032953553 0.0076635573 0.055499233 0.0031625107 -0.0008755792 -0.0037884726 
0.07933471 0.020099772 -0.004143272 0.02710868 -0.013801783 -0.0029512197 -0.05632191 0.05608457 -0.045115776 0.11107592 -0.0417303 -0.040856782 -0.054366183 0.037973296 -0.08757196 0.024866441 0.025456667 0.06024042 -0.014965564 -0.053576805 -0.08015017 0.04555037 -0.08163823 -0.07235322 -0.02032175 0.08044143 -0.07058166 0.0044245278 -0.069030054 0.066150315 -0.041870564 0.021291086 -0.06103691 -0.0022668808 0.024933584 0.006400883 -0.06888332 0.011443556 0.06209571 -0.030618407 0.026905164 -0.008486904 -0.0865912 -0.022157637 0.06755188 0.07653188 -0.05510588 0.07899677 0.017566215 -0.06183994 0.048041735 -0.013031379 -0.0340796 0.074333645 0.030102924 -0.08612701 0.06636442 -0.083775066 0.05666829 0.02171629 0.0074592084 0.017175557 0.05008917 0.07645037 -0.06853141 0.039500773 0.060053073 -0.009921094 -0.024343457 0.036020502 0.015669243 -0.050027594 0.025090005 0.016851127 0.06593285 0.02743467 -0.068424016 0.038492907 0.0105448095 0.0801318 -0.0095400065 0.062929146 -0.052466948 -0.04898229 0.06550537 0.048823725 0.008950362 -0.0686507 -0.06566283 0.0036283177 -0.019899026 -0.026647557 0.05883426 0.0029923113 -0.024305973 0.0666422 -0.021563739 0.071700014 -0.044533532 0.060316265 -0.045870274 0.023883514 0.07604015 -0.045814462 -0.04636815 -0.072021104 -0.047570385 -0.053303193 -0.00025955067 -0.014377986 -0.04489346 -0.05748184 0.0003568319 -0.050919145 -0.05599269 0.064805284 0.052980635 0.010462835 0.04736542 -0.02789747 -0.028412526 -0.068819806 0.061181206 0.0050988263 -0.065752015 0.060893573 0.0801657 0.06865203 
0.007057503 0.04904049 0.044690754 -0.042774726 0.037302732 0.014915012 -0.050614327 0.019119805 0.067243 0.09697072 -0.024002787 0.046622034 0.06880637 -0.03049991 -0.033109866 -0.02317472 -0.04364484 -0.07115024 -0.040604237 0.010622918 0.058381073 0.0016534706 0.0629154 -0.03576273 -0.019428302 -0.04927014 -0.05884705 0.06226915 0.0600485 -0.073635876 -0.0485747 -0.011170707 0.0521943 0.029244067 0.036526684 -0.07021271 0.046939753 -0.043955833 0.03845392 -0.0059465244 0.0131938085 0.06298389 -0.006924022 -0.0521304 -0.06593348 -0.058347113 0.008546583 0.080784015 -0.010321133 0.05267722 0.035422456 0.0070495503 0.06390685 0.12235459 -0.016287602 -0.082351744 -0.06200918 0.046716414 -0.07264396 0.040169924 0.0620446 -0.025222855 -0.03140742 0.050482728 0.049265098 0.06118881 -0.0344016 0.06588963 0.0026109605 0.049866565 -0.05659292 0.043945648 -0.0637754 0.016685799 -0.008809685 0.012498036 -0.07753447 0.09476628 0.018715573 0.09587242 -0.013790913 0.028596938 0.030496348 0.0153359575 -0.055605907 0.016075289 0.012199275 0.052453533 0.002528292 0.051929254 0.06975741 -0.03731911 -0.03391313 0.0034026706 -0.05624157 -0.012861997 -0.05444608 -0.028128246 -0.05489533 0.075070344 -0.016578801 -0.02276878 -0.012799925 0.00020392239 -0.07434394 0.053162716 0.012345958 -0.031746592 0.005607379 0.034506883 -0.028407685 0.012507086 0.066592276 -0.05659586 -0.050640624 0.030825181 -0.06487729 0.040727675 -0.020736478 -0.078774214 -0.036606677 -0.07130716 -0.07225878 0.036103155 -0.046366688 0.0033363625 0.07490033 0.07884084 
-0.019131493 -0.02197799 -0.018538704 -0.050086875 0.07377987 -0.058471516 -0.0047698915 -0.04408684 -0.026137711 0.05327503 0.085669145 -0.05314332 -0.03358645 0.066852584 0.052547958 -0.076052204 -0.034614917 -0.040280513 0.0017899235 -0.010352201 -0.04941506 0.016218076 -0.0798883 0.0058491607 -0.027994528 -0.010137254 0.013461417 -0.045568682 0.04235775 0.00023954362 -0.08165987 -0.06841705 0.027445223 -0.023797445 -0.08317737 -0.043352813 -0.034323122 0.06947512 0.059080742 -0.049430087 -0.020187192 0.008172505 -0.08135557 -0.021101922 -0.03415443 -0.0041769594 0.033806443 -0.071290374 0.030461766 -0.05941971 -0.010084207 0.055517215 0.027501801 -0.01951208 0.0059516877 -0.061593886 -0.02787228 0.050286222 -0.06004604 -0.031580564 -0.039051145 0.057421505 0.07176136 0.06831161 -0.018604556 0.03719413 0.0037232637 -0.03679182 -0.05748917 -0.01846616 0.01316594 0.021408008 0.004369734 0.055779703 0.039153457 -0.016619295 -0.038329944 0.051222652 -0.07674614 0.08963531 -0.08028742 0.01625073 0.025220178 0.09013852 0.00035470174 -0.0496979 -0.07262742 -0.06359789 0.072168626 -0.080884956 0.07241794 -0.029073238 0.0006206542 0.11791657 0.06998747 0.06722867 -0.06937931 -0.041966915 0.069624156 0.0130037395 -0.017027333 -0.045807887 0.004644667 0.07634557 0.028331004 0.022007417 0.060997203 -0.021324357 -0.010555506 -0.0877119 -0.045462865 -0.011957444 -0.06850014 0.01870669 -0.040654562 -0.061315857 -0.115864486 0.052752964 0.028642133 0.013522245 0.044884034 0.022967711 -0.0065183374 -0.021914355 0.021180894 -0.022687808 -0.042654313 -0.03685211 
0.021511553 -0.017342698 -0.09323445 -0.040321518 0.0255434 -0.0077714473 -0.07987188 -0.05971019 0.055342723 -0.045756232 0.034227926 0.020840567 0.003248787 -0.015239377 0.03813977 0.06427462 -0.061383054 0.049596597 -0.060019907 -0.05226098 -0.009704366 -0.03769964 -0.026579546 0.06885503 0.001137346 -0.04165387 -0.06811225 0.0630675 0.10364841 0.0030025989 -0.046176232 -0.10655653 -0.07149659 0.032132994 0.051734854 0.0660001 -0.02627503 0.05789162 0.0029149204 -0.010486908 0.056275927 -0.044349644 -0.046133604 0.053376112 -0.02607404 -0.045657415 -0.028433546 -0.050936725 -0.06484745 -0.020017192 -0.006692377 0.0671848 0.040647827 0.052064635 0.045696266 0.014956551 -0.013699408 -0.02458324 -0.046400703 0.0007066056 -0.07157902 0.067204334 0.072130725 -0.016970128 0.0787403 -0.01772761 -0.047898628 0.007161235 -0.024502805 0.030791156 -0.069718555 0.06496323 0.05588289 0.016887888 -0.01069239 -0.04741457 -0.03316534 0.03714215 -0.06764887 0.09298962 0.0014849305 0.03467951 0.06298221 -0.0633273 -0.041330274 -0.040850386 -0.06842054 -0.025728177 0.018313639 0.05862394 0.013235892 0.04654079 0.063897066 0.11683808 -0.022329092 -0.07394968 -0.046831556 -0.022772573 0.0201325 0.006489635 -0.069605775 0.0443748 -0.07075552 -0.06856868 -0.0026648713 -0.023665482 -0.03467279 0.031460233 -0.050049335 -0.075345375 0.047534037 0.004394966 0.016249957 -0.0654285 0.06695634 0.015852062 -0.044990696 0.015258558 -0.07834808 -0.03765486 -0.06251992 0.019060992 0.033302482 -0.04789232 -0.02660773 0.019017555 0.099751115 -0.06300791 
0.024033055 0.010343327 -0.010579454 0.06668081 0.034840807 0.008912541 -0.07635204 -0.052638788 -0.082460165 0.005376845 0.030140098 -0.03645767 -0.059520874 -0.029463068 0.0059704054 0.009979356 0.026391037 -0.08679097 0.012727592 -0.015723128 -0.0022778586 0.01918755 -0.010340586 -0.043763395 0.030470043 0.0077140774 -0.05329905 -0.0031758859 0.07852539 -0.058167942 -0.023751609 -0.090916075 -0.014589773 0.020474363 0.053385075 -0.06643033 0.05016474 -0.06141487 -0.022597384 -0.07722723 -0.015732013 0.07571221 0.049058117 -0.06911155 -0.021803955 0.039646223 -0.03924424 0.06986454 -0.05415469 0.020874634 0.042996306 -0.031313397 -0.05117111 0.0808797 -0.0074705556 0.01577672 -0.0042445357 0.08063326 -0.029797189 -0.009308957 -0.04258284 0.011463831 -0.026285807 0.05784515 -0.02489398 0.004749447 -0.010302037 -0.0021615324 -0.04005268 0.05616244 0.03539382 -0.03936616 -0.072081886 -0.02039243 0.004646277 0.032670394 0.018367462 0.0072314395 0.05846285 -0.012969352 -0.06851194 -0.009190738 -0.033581812 -0.017312454 -0.03077023 -0.0030086811 0.04601237 -0.025291307 -0.07937356 0.06638739 0.018209573 0.06389447 -0.009196466 -0.040375073 -0.07836021 0.06089572 -0.0011126973 -0.010977344 0.04209686 0.049853455 -0.00961411 -0.043919366 0.07824659 0.02077999 0.0190566 0.058886707 0.050889373 -0.0822312 0.017662933 -0.05020793 0.0031059165 0.041991208 -0.009176425 -0.016178366 -0.061346684 0.07399642 0.08199377 -0.06487257 -0.017747432 -0.04301853 -0.06313951 0.0013921037 -0.06915995 0.07404725 -0.07153416 0.07449823 0.087047495 0.03206316 
-0.033205204 -0.03444288 -0.027484734 -0.043450568 0.023767605 -0.0445473 0.045772247 -0.07066598 0.0076316646 0.051659137 -0.033933114 0.030754315 0.01875384 -0.05449035 -0.05848409 -0.07832947 -0.06792535 -0.06715469 0.054248154 -0.05647652 -0.04376027 0.0348166 0.042077094 0.06180179 -0.07399495 -0.032335628 0.023494013 -0.08041519 0.057144582 -0.013815589 0.023049211 -0.048954383 -0.01668503 -0.07220072 0.07285362 -0.057504233 -0.082331106 0.06764295 0.026399776 0.081092395 -0.058493853 0.024139747 0.07362186 -0.08451851 0.056478377 -0.03604481 0.080103 -0.073035754 0.03423883 0.07784074 0.06259081 -0.011434575 0.07735567 0.02282882 -0.031392753 -0.055528518 -0.08321113 -0.055267483 0.07337957 0.013617992 -0.032556433 0.10207594 -0.04341128 -0.013891399 0.07247774 -0.0071255383 0.015545927 -0.02758784 -0.04217366 -0.06537975 -0.028827727 -0.07263233 -0.025428507 0.051432572 0.0799823 0.014246449 -0.08493608 0.07363754 0.07249924 0.0038073848 -0.069551975 0.037752926 0.046696976 -0.124055974 -0.017878717 -0.035701122 -0.000119511096 -0.054731414 0.046870783 0.0055591697 -0.040740162 0.017120525 -0.029407877 -0.042535555 -0.026853064 0.020906791 -0.03960762 0.008300917 -0.07269962 0.06816932 -0.06422768 -0.033334393 0.059937105 0.027846552 -0.061884746 0.019497626 0.06921057 0.033913597 0.027512364 0.03513258 0.061871473 -0.0482675 -0.05825866 -0.11237274 -0.0014768565 0.100779556 0.027813558 -0.07172891 0.063944675 0.0034866557 -0.01898843 -0.002363272 0.021613942 0.102645874 -0.011070253 -0.06348758 0.09218485 -0.0023352474 
-0.052820433 0.05234129 0.0117186075 -0.023193428 -0.056345675 -0.021122374 0.023181692 -0.06884254 -0.08372621 0.006455695 -0.086942784 0.07315957 -0.035558254 -0.043056317 0.03611129 -0.015401522 -0.010766655 -0.07073437 -0.06779431 0.039545305 0.047950603 -0.012098884 -0.030217677 -0.043275163 -0.013936415 0.12530649 0.06441462 -0.05590733 -0.030763092 0.027794555 0.041058674 0.001590432 -0.060446985 -0.08250912 0.004607518 0.06746509 0.006759767 -0.016242256 0.007853031 -0.017216653 -0.02580462 0.046906896 -0.07894479 -0.082063645 0.027040517 0.04712183 0.060934268 -0.016395954 0.026934953 -0.046266515 0.070576355 0.070150875 -0.05387094 0.087681614 0.0025508553 -0.054660246 -0.062733576 -0.046355426 0.022314638 0.027040802 -0.06104053 0.0056474665 -0.016633388 -0.018887177 0.059217975 0.022734541 -0.035195358 0.07957827 -0.03567018 0.04137797 0.06519536 0.02246863 0.05782513 0.027735896 0.12491164 -0.06952026 -0.03342285 -0.01557575 0.06584389 0.02618911 -0.031657975 -0.06034302 0.05192894 -0.024940811 0.0013458107 0.02286635 0.046604756 -0.08613995 0.0006491098 -0.0032256327 -0.08640386 -0.06261133 0.067332916 -0.052626327 0.036337774 0.034479164 -0.08038102 1.40179345e-05 -0.057261273 -0.053609658 -0.074306995 0.045851104 0.04981668 0.0018728152 -0.06633937 0.010552169 0.05824861 -0.061569706 -0.012754697 0.0070283185 0.057258967 0.0014587656 0.04352026 -0.005333299 0.028965967 0.091612235 -0.010246791 0.054265864 -0.0026885867 -0.014734782 -0.0019914296 -0.023748051 -0.082530886 0.06551203 -0.008434195 -0.035753537 -0.020046543 -0.014938426 
0.0012946301 0.07167369 -0.0039293002 -0.07033325 -0.015226804 0.06417217 -0.013044924 -0.02734461 -1.44766e-05 0.057896152 0.0033457705 0.025681559 0.07948997 -0.12684324 0.01829791 -0.013791525 0.02944111 -0.0738437 0.043860484 -0.07873872 0.06235557 0.0953299 0.001059715 0.046475455 -0.072890036 0.096642815 0.03562225 -0.04720323 -0.021003373 -0.03978565 -0.08125525 -0.016735114 -0.07822259 0.029121075 0.017388623 0.0297231 0.04826743 -0.05313455 -0.06732181 -0.07054194 0.066533394 0.07251207 0.049554642 -0.060225427 0.07548141 -0.0010481551 0.012128651 0.052521028 0.039944645 -0.06284025 -0.046962414 0.024174899 0.005273715 0.01526709 -0.031561844 0.045829896 -0.050595317 0.1060251 -0.07616587 0.022504792 0.033256367 0.080260985 -0.035747573 0.006092943 0.009832061 0.050595585 0.025686987 0.10610621 -0.045910932 -0.0006642863 -0.022571517 -0.06864805 -0.047759283 -0.059885435 0.12149653 0.01697439 0.067863934 -0.04066237 -0.053758346 -0.063955985 0.047321387 0.048051484 0.048193663 -0.06563409 0.015043138 0.008494802 0.014731414 -0.024805745 0.05931758 0.05627821 -0.052599344 0.071749024 0.01690299 0.026601011 0.046229288 -0.059290588 0.08753918 0.031942967 0.031677525 0.018158164 -0.018675983 0.031043775 -0.092351936 -0.008188434 -0.0574881 0.070926405 -0.010678311 0.025398483 -0.022856744 0.025218355 0.012493347 -0.0768109 0.0014492972 -0.10348549 -0.0028721178 -0.036422074 -0.0056882487 -0.055534918 0.032646805 -0.038934574 -0.10282121 -0.06903564 0.05143402 0.09972358 0.0687742 0.004693657 0.081280634 -0.09263075 
0.090564914 0.026012015 0.03893808 -0.06487227 -0.024533186 0.015955836 0.016597189 0.06622419 0.021210166 0.009409848 0.01945656 0.06689328 0.1361761 -0.00023981233 -0.07235777 0.015211226 0.04589943 -0.022206835 0.03313816 -0.059674364 0.04559455 0.046897937 -0.0071491557 -0.04226436 -0.04915682 0.011196871 -0.05047671 -0.055468228 -0.083877236 -0.019150872 -0.0045390455 0.043989357 -0.11902787 -0.021457171 0.008416821 -0.002939403 -0.062997855 0.044985954 0.05309937 -0.03091937 0.03409847 -0.07914118 -0.061391897 0.059071317 -0.028275508 -0.03598264 0.060809635 -0.06691015 0.01849497 0.038565308 -0.060242176 0.0549436 -0.056446422 0.0076285475 0.013589568 -0.009121505 0.035881232 0.043387737 -0.023763869 0.038088486 -0.049613606 0.030917287 -0.043424457 -0.08960444 -0.011908189 0.05811879 0.06326897 0.1012632 -0.038027797 -0.018026851 -0.0038455224 0.04461381 -0.013062735 0.015325315 0.13353214 -0.0699808 0.06343171 0.014177444 -0.063507326 -0.036843207 -0.058091808 -0.010008015 0.039410207 -0.15476932 -0.079881944 0.048176028 -0.02295841 -0.0147060435 -0.07332073 0.072373435 -0.0058648875 -0.06330944 0.016907664 0.037516024 -0.009742153 0.03707067 -0.02761168 0.013643945 0.0064092376 -0.027152138 -0.02733871 0.03641104 0.02246975 0.015514985 0.012247734 -0.023381598 0.051929854 -0.025106544 -0.08432295 -0.059016522 0.03763414 -0.0054870895 -0.069112875 -0.07732795 0.015008115 0.09144807 0.06068138 -0.07627397 0.029077187 -0.054197364 -0.08948194 0.07095351 0.013792793 0.12106929 0.043642916 -0.034500416 0.08829363 -0.06534628 
0.00016455549 -0.061133444 -0.08826291 0.06167198 0.011567265 -0.010794774 -0.06654549 -0.03364429 -0.01602475 0.037266236 0.0014213104 0.08597687 0.0261071 -0.03505471 -0.03349363 -0.010479335 0.00785514 0.06920697 0.00554201 0.03618372 -0.0010221824 0.14544064 0.010789539 -0.085587375 -0.045181617 0.13687578 -0.069848694 0.013413013 -0.008601343 -0.04779045 0.052596156 0.01602186 -0.09838905 -0.05244392 0.07005543 0.06643257 0.041354295 1.8410477e-05 -0.055369284 0.01140929 -0.04687223 -0.062321097 -0.024021743 -0.032923527 -0.02559688 -0.025709804 0.032682404 -0.058873013 0.04267873 -0.031505708 -0.09994387 0.07531991 0.041116606 0.054669622 0.0011195913 0.037115894 0.055628072 0.10345588 -0.031031493 0.02466958 -0.033445183 0.010500215 0.041832652 -0.11591283 -0.01629939 0.014799929 -0.036946014 0.08210604 0.006993469 0.04487426 0.016216096 0.07364761 -0.014048596 -0.073492736 0.1308597 -0.036003023 0.020485407 0.073648915 -0.013484666 0.011200643 -0.0062935725 -0.008030966 0.056399286 0.006781679 -0.028044092 0.025048634 0.048542146 0.042677727 -0.06469543 -0.0011374797 -0.029561548 0.007510051 0.05234088 -0.023937132 0.0048374287 0.034471504 0.054601803 0.012707716 0.0026790914 -0.045867756 0.074910276 0.04323692 -0.013445648 -0.001716122 -0.0037476565 0.007412405 -0.056289066 -0.08628326 0.048563585 0.0011573867 -0.028826898 -0.080557324 -0.054467145 -0.089498125 0.053026706 0.0017152908 0.10181894 0.008831494 0.07053011 -0.07761408 0.039044116 -0.06777708 -0.013710768 0.006177345 0.06694814 0.07147234 0.009157478 -0.072279155 
0.122236185 -0.028006883 -0.12677437 -0.020770142 -0.05189597 0.048355438 -0.07999595 0.04349695 0.029921403 -0.08679909 0.07495894 -0.05345026 0.058329843 -0.08453114 0.015777279 0.0377172 0.0009925589 0.051047053 0.107387304 0.064905696 -0.072296135 0.039578345 0.07506733 0.07216767 -0.010613903 0.07398247 -0.010823571 -0.084571205 -0.038670853 -0.030938108 0.069188155 -0.11218214 0.057520166 0.04756138 -0.0042098477 -0.061230972 -0.0571875 0.01398311 -0.046704758 0.07149873 -0.031701025 -0.017311223 -0.048852827 -0.0040326864 -0.027447248 -0.040635142 -0.071274824 0.0073366365 -0.038084727 -0.040817812 0.010664482 -0.06948457 -0.025428884 -0.009999323 -0.046784125 0.010240745 0.047187407 0.11911522 0.019644022 -0.022729889 0.02348832 -0.021445297 -0.10803889 -0.06804063 0.025854206 -0.07057108 -0.008913413 0.035655104 -0.0157309 0.047312237 0.03536571 0.046026185 0.044760145 0.0011532232 0.10470784 0.044137545 0.04412327 0.038252678 0.06520267 -0.07227958 0.0040289387 0.06575555 0.047661945 -0.076279216 -0.0775111 0.012531433 -0.07179515 0.043613423 0.04080226 -0.079024315 -0.045399815 0.00049455464 -0.017062105 -0.04877318 -0.03663273 0.015950963 -0.004025243 -0.0073774005 -0.024344282 -0.045850944 0.043898962 -0.0052716583 -0.004489332 0.018083319 -0.012209795 -0.07354181 -0.04331551 -0.0027451261 -0.053647824 -0.04771134 -0.0010031539 0.046348237 0.06672585 -0.07086081 -0.015385492 -0.003475896 0.07945819 0.038173012 0.051812984 -0.00018732995 0.11518801 0.07551446 -0.0009420124 0.037875835 -0.055731133 0.06697462 0.04898464 -0.12573813 
0.025514947 -0.0006007008 -0.0067628208 -0.047760643 0.05761934 0.079526134 -0.079395205 -0.01753817 -0.07405037 -0.118514076 0.03622868 0.034796003 0.059648544 -0.08744042 0.010512233 0.001674855 0.05625748 0.06534202 0.117570356 -0.05596507 0.02109737 0.0691737 -0.08503987 -0.050572757 0.059468575 0.06961671 -0.07434146 0.05835874 0.05991441 -0.01941869 -0.054888446 0.0057687615 -0.048722487 -0.056070168 0.012677488 -0.019485231 -0.02040812 -0.03156885 0.06485727 0.036079526 -0.0734604 -0.057336435 -0.084862106 -0.023004679 0.02001291 0.009485319 -0.018951185 -0.068780296 -0.08022915 -0.02291958 -0.044169866 0.023317086 0.036795545 0.0027099994 -0.0003992766 0.029799817 0.017547932 0.12492258 -0.004769385 -0.019049037 -0.04205649 0.013512972 -0.021353897 -0.03367069 -0.07985149 0.0360481 0.067734085 0.015882393 -0.03321348 -0.0037624761 0.01971241 -0.014566843 -0.005029925 0.07841889 0.082571514 -0.06434877 0.01723225 0.006435888 0.07140455 0.0075230775 -0.05490184 -0.061187193 0.077010736 -0.03793596 0.049763884 -0.09012515 0.048636496 0.026577553 0.03545951 -0.08237754 -0.04996715 0.003574565 0.07809168 -0.052041218 0.016864108 -0.08091179 0.092095114 0.047574576 -0.056043133 -0.041798744 -0.01688189 0.047759525 -0.04041354 0.020101681 0.03835362 -0.080427855 -0.061474852 -0.031031847 0.04177797 -0.04789369 -0.08898148 -0.019237427 0.072916724 -0.05306605 0.059661046 -0.052909605 0.13445362 0.061996557 0.01909522 0.04283631 0.034305524 -0.03304032 0.02858971 0.08094077 -0.07811568 -0.07274281 0.06295622 -0.05177794 
0.008978559 -0.005370564 0.028458588 -0.01214679 0.04381927 0.018621951 -0.058181018 -0.0062553133 -0.019363083 -0.12589529 0.033120103 0.007797118 -0.06847482 0.017100036 0.008875298 -0.07571088 -0.024854474 0.03287067 0.017682776 -0.021020506 0.03135351 0.14135225 0.025926733 -0.013218644 -0.020982906 -0.0062711253 -0.023304889 0.042517632 0.042008933 -0.0076502487 -0.06528264 -0.13175745 0.052606456 0.051365383 0.002883106 -0.0021186844 0.07401017 0.059730094 -0.062103383 0.03899435 -0.062404826 -0.013140008 -0.0015112788 0.0138445925 -0.02492873 -0.06367176 -0.06961488 0.039915387 -0.0180482 -0.016083203 -0.074604824 0.038909048 0.05897194 -0.024059517 -0.057457104 0.055578373 -0.08646025 0.04833657 -0.071553625 -0.048824623 -0.011971258 0.09246988 0.010131869 -0.07808003 -0.0057765786 0.04581795 -0.053120144 -0.07194504 0.0044243503 -0.048026763 0.100390494 0.05827678 -0.000878715 -0.06265209 0.094242044 -0.02170061 0.06012975 0.03998488 0.0032398321 0.06739234 -0.04910097 -0.047812633 0.055430885 -0.040336877 -0.006935892 -0.08028382 -0.06462541 -0.063284844 -0.08373809 0.012724874 -0.054161947 0.06975178 -0.037489846 0.049525093 -0.0037330594 -0.032053698 0.07136026 -0.047735024 -0.01865295 0.04868517 0.020356461 0.019809075 -0.066014655 -0.020402487 -0.0059606913 0.022385782 0.027929572 0.021979194 -0.011629681 0.0004936812 0.055002633 -0.03788672 -0.015875207 0.038336366 -0.012114709 0.0038959666 0.0074695083 -0.06608982 -0.036552694 0.01565437 0.04656351 0.048304133 -0.053031087 0.071515866 -0.031253412 0.07190061 0.10500324 -0.0691402 
0.05664708 0.074204266 0.010290496 0.0009764709 0.00211066 -0.04401652 0.025559254 -0.0016275998 -0.058363732 -0.08190853 -0.0021683234 -0.030289786 0.02072688 -0.10366797 -0.02285926 -0.04573168 -0.027823444 0.0007727321 0.057471335 0.06692138 -0.044928554 -0.012858437 0.03458946 -0.065148406 0.031400368 -0.031293895 0.047005147 -0.059446 0.010373993 -0.026901104 0.04858187 -0.118825585 0.031787053 -0.023377614 0.043628145 0.027498558 -0.028105844 -0.0006822899 -0.06916969 -0.058485128 -0.010970578 0.037004188 -0.007843285 -0.037484676 -0.018104548 -0.00059740245 0.03395517 -0.006326103 -0.06595151 -0.07085153 -0.09385641 -0.0010882783 0.0108922785 0.090133496 -0.07052357 0.057509378 -0.02496083 0.071779765 0.06418616 0.07744556 0.056051813 0.08388228 -0.024873659 -0.03481836 -0.07760184 0.060008757 -0.046532456 0.044869483 -0.03690017 0.014880046 0.055589244 -0.06066369 -0.048713703 -0.018467262 -0.028336257 -0.0015460551 0.0076558115 0.06073378 -0.010635211 0.024102991 -0.009064637 0.0016771927 0.01965534 -0.027256617 -0.01213455 0.01941658 -0.021140484 0.067499824 -0.048067715 -0.074612185 0.034850575 -0.06755261 0.0027507537 -0.04447406 0.01628022 0.036666922 0.018986564 -0.04920345 -0.063383155 -0.080109514 0.07674462 -0.071780734 -0.0029616747 0.015561551 -0.05500825 -0.04370771 -0.04673314 -0.003307331 -0.055407323 0.028111996 -0.070444874 0.066411875 -0.058246408 0.008225502 -0.07632341 0.025318878 0.0009415619 -0.031087302 -0.0011450946 0.035928145 0.06949607 -0.0059904233 0.07740712 -0.0026661817 -0.074445605 -0.044645347 0.120196976 -0.07377072 
0.02780695 -0.0037552952 -0.06147858 -0.0037699146 0.041003697 -0.022278339 -0.015008956 0.039001748 0.06987102 -0.122007705 -0.039608207 0.07170357 0.03763675 0.022678318 0.04294417 -0.008256028 -0.031730052 0.02028209 0.0222596 0.017434275 0.04510168 0.011990261 -0.08236902 0.006105153 0.061856218 -0.024584454 -0.08448898 -0.06156212 0.045632802 0.046472482 0.0011374247 -0.018488476 -0.038724072 -0.06652407 -0.020543188 0.021751352 0.029327372 0.05329408 0.06618916 0.060730614 0.07373346 -0.0023445338 -0.030249026 -0.010439116 0.035528176 -0.020429328 0.014267124 -0.015614241 -0.030347632 -0.018040895 -0.026880346 -0.027772328 0.018027332 0.0026157224 0.05522179 -0.04807274 -0.045999177 0.10172483 0.032360286 0.07521159 0.01157707 -0.039900582 0.076250605 0.0036775141 0.067374796 0.045566335 0.04428997 -0.07435988 -0.0030691866 0.003046982 0.09315884 0.0027637172 -0.038431954 -0.03614897 -0.015464678 0.010065973 0.09699448 0.06817352 -0.0016816864 -0.051800657 0.024424173 0.063845314 0.0020597307 -0.06580788 -0.039433576 -0.04494843 0.035663873 -0.032598924 -0.029318692 -0.014952807 0.036161274 -0.057170838 0.05230129 -0.04339178 0.011532713 0.05616858 -0.062773526 -0.028286707 0.07164361 -0.0074356697 -0.04343034 0.04125558 0.013506491 -0.020508558 0.0706328 0.06364147 -0.082674414 -0.058590095 -0.07959278 0.07341342 -0.07900878 -0.00993753 0.069477506 -0.07950191 -0.0152206635 0.079686016 0.10941784 0.009112887 0.04178413 0.06601038 0.012639064 -0.059141994 -0.046338644 -0.061046727 0.031277396 0.02763006 0.11063326 -0.108272664 
-0.057817508 0.016261442 -0.07650778 -0.07199005 -0.037394047 0.07158431 -0.07614933 0.01822849 0.039761703 -0.1183065 -0.067216106 0.03247499 0.036290072 0.050694477 0.008693424 -0.017206712 -0.01542531 0.067936085 0.079539165 -0.023233976 0.03500031 0.020352222 0.026712239 0.058499184 0.045675553 -0.02111373 -0.025534693 0.043412223 0.077245995 -0.00084102154 -0.08210396 -0.08797566 -0.034612875 0.029713277 -0.022308404 -0.051167052 -0.042850524 0.046909742 -0.045339573 -0.06661915 -0.04107973 -0.0766034 0.043971132 -0.07457816 -0.08180529 0.06829997 0.035743482 -0.030057998 -0.030476365 0.07894746 0.010142702 0.044562683 -0.0010911488 0.022396937 0.048355453 0.050936054 -0.042116143 0.08887691 -0.06969926 -0.05599488 -0.0005862564 0.089410014 -0.050412808 -0.019619942 -0.0025841235 -0.060461488 0.057427533 0.06371533 -0.02020512 -0.012959041 0.105429135 -0.061707042 0.021067146 -0.04142935 0.03111127 -0.029216517 -0.012777572 0.0099625485 -0.05369499 -0.08653952 -0.02012059 0.043657877 -0.012195611 -0.0109680975 -0.016824981 -0.023670796 0.037473664 -0.06527278 0.017476665 0.050967332 0.083040364 0.037323266 0.016889136 0.045124583 -0.024184516 0.019014329 -0.05914774 -0.056994174 -0.077718444 -0.07374542 0.021736272 -0.011242203 -0.04135631 0.013400421 -0.079204105 0.026629632 0.009079674 0.0045358473 -0.04220536 0.032789648 -0.042752095 0.07479836 0.03626607 -0.05479508 -0.054101788 0.1057143 0.087310016 0.0377092 -0.04176483 0.031824596 0.05725422 0.07404273 0.10678829 0.06590239 -0.022094756 -0.04885862 0.07969033 0.026978755 
0.04858746 0.030259557 -0.073996186 0.06137686 0.0133392885 0.016124815 0.059612714 0.0104355505 -0.0058255442 -0.11386571 -0.08710327 -0.0115777245 0.07795977 -0.07822138 -0.017908916 0.07460132 -0.04535104 0.060488988 0.001211084 -0.072999336 0.023600481 -0.023412334 0.060322292 -0.009631845 -0.061333157 0.005605899 0.056905247 0.021966983 0.08983462 0.02075518 -0.090977475 0.02296368 0.0688979 -0.036006507 -0.030840533 -0.039150503 -0.07266722 -0.08175925 0.052528776 -0.058829796 0.0152345 0.05747486 -0.012460902 -0.013662971 -0.0016604736 0.034271605 -0.003478475 -0.04566956 0.046438694 -0.060614064 -0.07082148 -0.027755573 -0.070066884 -0.0046155895 0.03460318 -0.02492268 -0.05021394 -0.021365615 -0.0653802 0.028270483 -0.03841238 0.10928359 -0.061339077 -0.008216602 -0.07101724 -0.035286903 0.015391722 -0.078449845 -0.03855827 -0.007616967 0.08998521 0.062118217 0.044690162 0.06664995 0.02145302 -0.054950688 0.09175886 0.022430116 0.048546784 0.066289626 0.043214276 -0.074078314 0.09257494 -0.023104353 -0.011075524 0.056885917 -0.078340515 0.05262639 0.033335406 -0.08522294 0.06510062 0.01939442 0.0032101676 0.07066931 0.036847662 -0.006363228 -0.08441841 0.008711421 -0.07720175 0.04801995 -0.032176998 -0.050532334 0.03602305 -0.033061415 -0.0054340065 0.0044106347 0.012286618 -0.08055196 -0.07734296 0.05913077 -0.02738952 0.04898518 0.030832019 0.070708945 0.027382083 -0.03108922 0.07937738 0.019889303 -0.07541332 -0.065468535 -0.06333283 -0.05906205 0.056008294 -0.033946224 0.053567544 -0.052911423 -0.02833646 0.028785259 
0.01417726 -0.036750242 0.07797916 -0.018491505 0.06448614 0.03528843 -0.07281245 -0.05267248 0.06348586 -0.06937758 -0.032456752 0.008380835 0.030631186 -0.03459201 -0.046876334 -0.017991234 0.007486202 0.026373733 0.042902835 -0.06856251 0.0456684 -0.016477939 -0.07926712 -0.054701295 -0.06305075 -0.033710714 0.07041566 0.006363886 0.025591062 -0.077891886 -0.078677006 -0.0312598 -0.04894015 -0.08428755 -0.0064619915 0.06342331 0.0628226 -0.02942958 0.024587102 -0.039676737 -0.038657475 0.025988236 0.050320867 -0.015673371 0.07012996 -0.03775279 0.03288971 -0.016371595 0.0021076514 0.0051960275 -0.052189123 -0.011761985 -0.02860367 0.01918957 0.033579044 -0.007263399 0.062251214 0.0039078887 -0.038310874 0.06351089 -0.0059564114 0.0835613 -0.050043747 0.016757008 -0.0821377 -0.029818913 -0.017750204 -0.045708578 -0.026263572 -0.022622641 0.08684992 -0.011070362 0.020219874 -0.033181775 0.015247388 0.002320826 -0.027530562 -0.07470902 -0.07928577 -0.089445665 -0.01374013 -0.07167325 0.0098909745 0.061504774 -0.0399889 0.025966326 -0.041689545 0.039037455 -0.035580125 -0.019540386 -0.040547527 -0.050025668 -0.04911407 -0.060797296 -0.060339417 -0.030344248 -0.058296278 0.040285755 0.036480565 -0.032122683 0.025852755 -0.024164617 0.0115455035 -0.076369554 0.07738922 -0.08628238 0.041136604 0.068223976 -0.06833324 -0.06287551 -0.03425627 -0.040069263 0.06786432 -0.014374831 0.05877188 0.012267636 -0.04047503 0.012895785 -0.0017804205 0.07905368 0.050353803 0.018775769 0.040567636 -0.022507383 -0.08721424 0.03207145 -0.02859363 0.050068922 
0.047444884 0.06749148 0.04319926 -0.034934107 -0.07421763 0.0063552633 -0.039132424 0.04193703 -0.04509526 0.001185002 -0.042982813 0.06672881 0.015712205 -0.04681269 -0.029177602 0.0697526 -0.04180134 -0.0598351 0.028035682 -0.03861392 0.07200583 0.028657554 0.05045409 -0.07882552 -0.0012248904 0.07167067 -0.00238897 -0.006000907 0.055225722 0.07225766 0.06705078 0.04472323 -0.0040751374 0.048033934 -0.007597298 0.020813212 -0.039192684 0.044126086 0.028232835 -0.051829584 -0.04884907 -0.055618495 -0.07810174 0.01261167 0.040298656 -0.014602661 0.033634022 -0.02455897 0.035623245 0.055577032 -0.011989485 0.04056577 0.03191205 0.05357432 -0.04584724 0.02432498 0.071411416 -0.040577974 -0.044922214 0.07879292 -0.065489985 0.045622814 0.082347475 0.004364382 -0.040065143 0.0028298455 -0.014000118 -0.024952177 0.056301538 -0.03952447 0.0031245747 0.06721126 -0.0033869692 -0.008998498 0.0002533332 0.037767336 0.06881608 0.031924546 -0.046917934 0.016438657 -0.068627834 0.028945722 0.087931536 0.021229126 -0.06791061 0.09278874 -0.031306047 -0.07167876 0.009207979 -0.07076541 -0.055803217 0.0594415 0.10064578 -0.043008678 -0.07222191 0.043911494 0.04604869 -0.06608419 -0.056807455 -0.06720068 -0.01689864 0.00223054 -0.052937824 -0.07996461 -0.024753684 -0.001800763 -0.032894686 -0.029485904 0.04980739 0.04204718 -0.030089427 0.090887636 -0.019454956 -0.019953638 0.06333426 0.01639892 0.07916967 -0.074903 0.03627637 -0.057383776 0.061573263 -0.029730704 0.030523594 0.06638495 0.051959347 -0.06961312 0.030581834 -0.02384717 
0.0026646485 0.06841735 0.008167845 0.025550606 -0.037153978 0.071658336 -0.07688409 0.02356435 -0.03380502 0.071501225 -0.037221793 0.09337203 -0.029750947 0.059686773 -0.0053598355 -0.001583614 0.047793858 -0.07293611 0.067931 -0.066285245 -0.052933894 -0.010630057 0.05952497 -0.01477053 -0.072054274 0.040508326 0.047529146 -0.027459469 0.0036946784 0.034274757 -0.05382216 0.010667784 -0.01227301 0.01905715 0.023403937 0.06638288 0.023890842 0.009740131 -0.01510033 -0.04478992 -0.044871274 0.0043289736 -0.017270248 -0.031140275 -0.008549684 0.00086604804 0.04487648 0.019553427 0.016268691 -0.048307538 0.007698135 0.06739165 0.032947328 -0.03312704 -0.026080191 -0.04624242 0.0045207245 -0.033254143 0.07982769 0.017323382 0.061846547 0.041013673 0.10876213 0.03366038 -0.011815963 0.027862357 0.06896185 -0.026388394 -0.04488438 -0.06278227 -0.022911033 -0.07579164 0.0024976337 -0.0075649917 0.0546704 0.056242414 0.092 -0.073662035 0.059572667 0.017792003 0.04561413 -0.003261812 0.067181155 -0.0054884334 0.039342515 -0.015928471 0.039610084 -0.070319444 0.0070839007 0.026558047 -0.10846017 0.061529823 -0.03794846 0.04279023 0.022857212 0.04426264 0.08121814 0.055799425 -0.020439435 -0.056285616 -0.029922675 -0.023218006 0.093164995 -0.007380463 0.069132775 0.066885866 0.006229912 0.07443934 -0.06498246 0.022845639 -0.091341354 0.08758331 -0.0561371 0.06242654 -0.016669776 -0.078678586 0.08777852 -0.052055433 -0.03444153 0.01953984 0.006103227 0.060148336 0.08127918 -0.052776534 0.061861787 0.0010407865 0.04146396 0.050338726 
-0.0074430536 -0.07937988 -0.0010955663 -0.018446831 -0.01019384 0.061066903 0.016138315 0.029857919 -0.088456236 -0.04044822 0.0049225786 0.11757368 0.09638 0.041782852 -0.043673303 0.048774183 0.028004989 -0.005589248 -0.04343035 0.04827735 -0.047671773 0.04296726 -0.04340889 0.071197264 -0.0668075 0.056068458 0.07058309 0.054129913 -0.015519692 0.030453146 -0.07040681 0.09699429 0.055752113 -0.033416238 0.030052027 0.026236832 -0.014643253 -0.044758514 0.053576715 -0.017393522 0.048961706 -0.005090669 -0.014585594 0.010429741 0.040683128 0.027839974 -0.015784636 0.055786353 -0.007583872 0.037969492 0.06904365 -0.030224284 -0.01978148 -0.039703507 -0.031081483 -0.023202173 -0.04211923 0.055566486 -0.067534715 -0.032294746 -0.044242725 -0.0347393 0.10999267 -0.055729885 -0.079469934 0.04165738 -0.053932913 0.009055896 0.0075906594 0.06936797 0.040000383 0.06767846 0.00227254 -0.06042424 -0.085250966 -0.080689386 0.024355948 -0.077694125 -0.060441494 -0.065805085 -0.05270905 -0.077447996 0.105765976 -0.03320612 0.06558069 0.087941654 -0.047584917 0.05446283 -0.08385385 -0.079681575 -0.116068006 0.01934816 -0.0098958295 -0.03401464 -0.08367984 0.011188038 -0.0458463 -0.008357868 -0.04599062 -0.07426664 0.015317477 -0.06751281 0.020250244 0.0134363845 -0.02724879 0.0271788 0.059521474 0.054656226 -0.008769678 0.0043565226 0.007432788 0.09370457 -0.029273804 -0.023276158 -0.07350637 -0.047819942 0.021871077 -0.027185667 -0.027152482 0.040162764 0.031298924 0.020672798 -0.021865232 -0.09438814 0.016408663 -0.07130704 -0.07236213 0.011515145 
-0.068076015 0.05246004 0.11761806 -0.009089696 -0.05330591 -0.04592995 0.053729393 -0.026963262 -0.047739282 0.07477799 0.06758983 0.087478064 -0.010547719 0.0006525738 0.02818766 -0.054875903 -0.0039184242 0.04555435 0.0554381 0.0008669096 0.031365506 -0.038734663 -0.015296469 -0.045501214 0.026754573 -0.005609382 -0.03882166 -0.03333868 0.056583095 0.048471965 -0.037369676 0.007721408 -0.066617146 -0.003007375 -0.011482494 0.038216293 -0.048879877 -0.08393348 0.011824116 0.008792043 -0.057415992 -0.07221472 -0.004035024 0.06931703 -0.048912484 -0.07250664 -0.07682184 -0.009242855 0.03812162 -0.07776735 0.05070137 -0.0653823 -0.004257679 -0.084619366 -0.0072999746 -0.0471541 0.025489358 -0.06852279 0.03270886 0.0126674175 0.060879566 0.0094836755 0.109330624 0.07881668 0.07188632 -0.0077939914 -0.010986865 0.03593547 0.014327439 -0.0032664165 0.018291095 -0.065660365 0.057980012 -0.05714514 -0.050551172 -0.067253485 -0.009175546 -0.02605165 -0.009876905 -0.08331222 -0.06631372 -0.052723516 0.08092961 -0.026790734 0.031985596 0.096710615 0.008173362 -0.08047062 -0.050285354 -0.045047108 -0.08354507 -0.031004496 -0.012478068 0.042291638 0.035785094 -0.04121717 -0.007821512 0.0438797 -0.06593817 -0.09434594 0.011910379 -0.03516467 -0.041040927 -0.03368409 -0.025385903 -0.062318455 0.04516757 -0.01947987 0.06677889 0.0634344 -0.10252255 0.11714758 -0.087570906 -0.0019925912 0.068157695 -0.08626742 0.005144484 -0.001559943 -0.05182361 0.053121485 -0.03894205 0.005630575 0.037784655 -0.058543317 -0.020576496 -0.046142574 0.0031220007 -0.017507436 
0.088909894 -0.05700968 0.037142593 0.026075384 0.04129249 -0.0043846667 -0.010624155 -0.08533008 0.0041290643 -0.08145456 -0.02803072 0.109131806 0.027907545 -0.046102844 -0.016079474 0.006753858 -0.01067584 -0.020593965 0.04903599 0.06873192 0.07502317 0.084476605 -0.076368205 -0.023741033 -0.0030109957 0.018573282 -0.012333873 -0.06219244 -0.06987541 -0.015947714 0.061281282 0.11824531 -0.071292855 0.022134181 0.040912397 -0.059603736 0.0009941006 0.03775825 0.066669576 0.062280603 -0.023472808 0.0077566877 0.032737378 0.046731796 -0.052300513 0.06650811 -0.009735942 0.044928063 -0.066294 -0.020794705 -0.0033006403 -0.04253722 0.010890078 -0.1116551 0.057155676 -0.008786856 -0.06615738 0.039646193 -0.04956275 -0.017555676 0.017009273 0.018811898 0.037199583 -0.037360445 -0.0019654776 0.042775374 0.00856027 0.02080868 -0.043553885 0.054675333 -0.03270375 -0.0126471175 -0.06626828 0.017903827 0.07810897 -0.03166838 0.00083079713 -0.12767927 0.009700106 -0.035939533 0.01482366 0.055038102 0.104472816 0.04127039 -0.017055152 0.06848994 -0.059629373 0.015880117 -0.018952498 0.073710196 -0.027599866 -0.03429369 -0.013270252 -0.046084136 0.04642806 -0.076247804 0.068349585 -0.075492196 0.06848039 -0.024985684 0.0009374842 -0.020242598 0.08784236 -0.006221384 -0.072234266 0.0038990937 -0.060277425 -0.08112753 -0.07240122 -0.015152891 0.037757922 0.07887236 0.058082122 0.055339076 0.04581328 -0.09871254 0.10557296 0.041692734 0.00916554 0.009805135 -0.039218914 0.056076474 0.058520697 0.022931566 0.023601305 0.052906476 0.041697197 -0.08653638 
-0.031016557 -0.061569072 -0.013351386 -0.0150310155 0.037209637 0.0156525 -0.044252682 0.031935103 0.039262906 -0.04041534 0.037765265 0.06145877 -0.03864323 -0.043932144 -0.025728717 -0.01163951 -0.039332904 -0.037482746 0.025669511 -0.015571962 -0.06918901 -0.025149325 0.04707488 0.02219745 0.013855122 -0.04562034 0.018462993 0.05927517 -0.029999007 -0.031651422 0.06990599 -0.03713049 0.08721701 -0.068653904 -0.031408567 0.07907618 -0.0038471592 0.04805377 -0.03431593 0.02253262 -0.055569284 -0.009055391 -0.05587786 -0.025211297 -0.04886246 0.033556283 0.0005976856 0.08135921 0.025939064 -0.023560897 0.066649005 -0.043111343 0.09165089 0.025080178 0.035515293 0.015394509 0.057976976 -0.044425417 0.06946536 -0.06535009 -0.06899842 -0.06283723 0.059956364 -0.068139195 0.03515957 -0.07858805 -0.053399775 0.0643514 0.06288262 -0.019223835 -0.0056997463 -0.025694132 -0.08291525 -0.007035643 -0.012487379 -0.027629595 -0.05161403 0.060908753 0.056429937 0.039320678 -0.035795502 -0.051306427 0.02240102 0.05225238 0.058367286 -0.04178092 -0.071610354 -0.037956018 -0.009478831 0.067263134 0.100109674 -0.059319597 0.06481445 0.009155079 0.02189873 0.02140601 0.04072376 -0.032460038 -0.020690707 0.039617296 0.023269892 -0.024172623 -0.051984515 -0.008045465 -0.082889445 -0.08380609 0.043423343 0.07474824 0.00034851534 0.06188207 0.09539962 0.0052761766 -0.00023248966 0.088921994 -0.049749706 -0.014452644 -0.07270922 -0.079753876 0.053698488 -0.041692387 0.09763395 0.06838495 0.02000595 -0.0176476 0.054976232 -0.05014489 -0.054289512 0.0859437 
0.023039432 0.029433377 0.030259652 0.021236498 -0.025456976 -0.00072623044 -0.05743421 0.0023551898 0.0050291964 0.050453197 -0.045183096 -0.06035321 0.04811027 -0.042863857 -0.026942432 0.014816236 -0.03963756 0.055964876 0.01823209 -0.002831556 0.021835104 -0.021126764 -0.050533067 -0.035698343 0.060710914 0.01968887 -0.025458006 -0.011006196 0.054069757 0.0489315 -0.043379284 0.07953298 0.058203757 0.052215427 0.04927487 0.051850818 -0.02372977 0.05438568 -0.058519147 -0.055921063 -0.016930431 0.008249387 -0.06478094 -0.04659116 -0.04788733 0.0043464005 0.011583813 -0.03230609 -0.008805239 -0.06426929 0.027306696 -0.05292676 -0.004889584 0.011012551 0.075817876 0.022845209 0.005511243 0.06357176 0.003208898 0.011816323 0.0037628263 0.07593071 0.020825395 -0.056009263 0.011262538 0.010236927 -0.03154336 0.033860374 0.050084114 -0.05571832 0.06637079 0.0035621976 0.062899075 -0.038305845 -0.05456935 0.0033805668 0.022235256 0.066311605 -0.08110499 0.015115457 0.07937693 0.07175561 -0.0052057705 0.012449918 0.007706628 -0.047000196 -0.0063031395 -0.080333166 0.0671604 -0.049680267 0.012031839 -0.06169434 0.074612126 -0.03500134 0.051541783 -0.011737958 0.010957776 0.06848487 0.012301887 0.052236754 -0.07598939 -0.04347219 -0.030567143 -0.057980634 0.03391429 0.0056996895 -0.021427136 0.042226072 -0.016272549 -0.015604577 0.0018539063 0.049528953 -0.009113192 0.053895783 -0.040280297 0.022708079 0.003633385 -0.07035459 0.017421298 0.006422676 -0.042164735 0.008693568 0.08487588 -0.02854707 0.0069028046 0.035091683 0.06977685 0.027961506 
0.030481683 -0.0140283555 0.048154905 -0.012889308 0.028858155 -0.06649167 0.07527361 0.007762059 0.0138663985 0.08167399 0.086390905 -0.06889238 0.040791452 0.016179973 -0.012518546 0.0014274693 -0.061090928 -0.06319734 0.07264948 0.06209574 0.0020930618 0.0012727795 0.0119368695 -0.054181784 0.034358725 -0.06172813 -0.013191082 -0.050006967 -0.026798962 -0.02204011 0.04438844 0.002554678 -0.056194086 -0.07017347 -0.029295398 -0.041792233 0.01990246 0.02728014 -0.055994414 -0.0551771 0.04306463 -0.04482461 0.0343614 -0.061450727 -0.07911044 -0.06824223 0.074648894 0.059657875 0.06763623 -0.03856523 -0.0420952 0.08218914 -0.04969293 -0.033905894 -0.016307987 -0.03594219 -0.057089597 -0.045979418 -0.07779183 -0.066934325 0.007207729 0.025178708 0.045906536 0.051899407 0.01310471 -0.026677387 0.0022922084 -0.01870503 -0.027161598 0.08069203 0.006396999 -0.026120726 -0.011211122 -0.071266145 -0.074388646 -0.06587296 0.036230963 -0.028510224 0.067147754 0.04816759 0.06388719 -0.05559121 -0.073109224 0.09554273 -0.030705798 -0.011453893 -0.053174917 -0.041289594 -0.011994093 -0.0019627523 -0.01937534 -0.051526338 -0.060725696 -0.04788174 0.050771408 0.02169133 0.0056240642 0.017357579 -0.04643827 0.00010052857 0.009119034 0.04257764 0.027451241 0.019257136 -0.024714895 -0.0029008347 0.04964985 0.026800781 -0.034205295 0.0024890392 -0.050796043 -0.024488982 0.05528109 0.06346732 0.034908485 -0.08379023 0.004999887 -0.07100327 0.038139462 0.07877358 0.04484503 -0.025956891 0.019382754 -0.06203534 -0.05874926 0.026143141 -0.06516042 0.03044978 
0.013306071 -0.077617705 -0.067344934 -0.02147504 0.053242452 0.071905814 -0.016784772 0.06587466 0.06555515 0.05600699 -0.009084628 -0.04651927 -0.014484921 0.10286412 0.03970324 -0.040795695 -0.009889007 -0.08271964 0.003967565 0.05826977 0.022574812 0.033213556 0.03306388 -0.031549975 -0.052992493 0.006579414 0.019124875 0.02149283 0.008168074 0.031385362 0.055823267 -0.034074545 0.049234975 0.038466346 -0.05752465 -0.044481628 -0.05298167 -0.086108446 -0.054567926 -0.06732339 -0.02476509 -0.0057215244 0.033680137 -0.017731924 0.025990577 -0.031841613 -0.012941018 0.086353555 0.06663853 0.024822876 0.062790334 0.034460247 0.049691368 -0.053870328 0.0047752038 -0.07915059 0.04741723 0.015293519 0.027872793 0.07183843 0.054755487 -0.026508983 0.001058255 -0.05860461 0.040193785 -0.00018758704 -0.009502798 -0.055579353 0.06236743 0.038088985 0.042747296 0.037174594 -0.031362463 -0.076368414 -0.027755586 -0.024977118 -0.07431229 0.034129538 -0.067060575 -0.048919354 0.062386073 0.076212846 0.04996024 0.019319747 -0.033168685 -0.046499975 -0.022802891 -0.07707115 0.025196586 -0.039896995 0.060490236 -0.05720942 -0.059300277 -0.04992963 0.009380695 -0.041706894 0.04857538 0.047729008 -0.040527742 0.022128385 -0.006430991 -0.055326045 0.09123674 -0.013113223 -0.04895009 0.053443044 0.046779796 0.054553315 0.05935541 0.06408607 0.06694422 0.04659004 0.051036224 -0.0849703 -0.07916006 -0.08976609 0.048178725 0.009834237 -0.0001334548 -0.055735532 0.013116981 -0.0508512 0.042564176 -0.021867093 -0.045282017 0.018139347 -0.04045725 -1.6869124e-05 
0.047687255 0.067286305 0.026292395 0.012273162 -0.027935721 -0.0031249374 0.004921153 -0.07368668 -0.028858835 0.026391726 -0.060815085 0.02698196 0.058708176 0.06636373 -0.049393415 -0.07766864 0.026094772 -0.03723224 0.023394262 0.031542394 0.024783887 -0.09225686 -0.026509905 0.040381387 -0.028268438 -0.083449826 -0.08807941 -0.0010999201 -0.009278584 -0.06096904 -0.019582994 -0.02284785 -0.06424218 -0.0076247104 -0.045068268 -0.043152604 -0.00547435 -0.010317662 -0.015361652 0.035920933 0.080007456 -0.05810289 -0.02975513 -0.0047027557 -0.006413435 0.050876193 -0.042756516 -0.040888507 0.039631967 -0.043905426 -0.068434335 -0.057701893 0.040550888 0.0075017847 -0.059796534 0.0042819334 -0.02981019 -0.08300838 -0.07232957 -0.05032402 0.0012974069 -0.00083271216 0.006274657 0.024976075 -0.017472053 0.026484191 0.024867699 0.03498342 0.034492332 -0.076556504 -0.0057155765 -0.04658423 -0.0022531534 -0.054762818 0.0035598497 -0.052681804 0.008029639 -0.001379416 0.013082863 -0.07599421 -0.016675182 0.01817435 0.007974653 0.084232315 0.052063476 -0.0412388 -0.06272179 -0.06337188 -0.049123798 -0.051904432 -0.045101047 0.07685826 -0.011090442 -0.0393327 0.027669264 -0.055612948 0.021143395 -0.083415575 -0.011917422 0.03241482 0.07167239 -0.048550505 -0.001840442 -0.024964083 0.051186882 0.06023074 -0.083477736 0.062532574 -0.058822434 0.063664645 0.0030011768 -0.09778075 -0.029461902 0.028822232 0.015567995 -0.008394105 -0.072664596 0.013426237 -0.017907307 0.034581505 0.009287914 -0.04020794 0.025755215 -0.03955622 -0.015456264 0.030739136 -0.039795518 0.025815848 
0.06926839 0.006712168 0.023291657 -0.04019074 -0.043917473 0.06787724 -0.065863 0.07030533 0.021129347 -0.045418426 -0.061929066 -0.023503417 -0.017562987 0.030560125 -0.03086753 -0.0738582 -0.05422461 -0.0018706607 0.00829303 0.03896941 0.025829725 0.0051265787 0.060514636 -0.055099923 -0.06541122 0.008005695 -0.057665043 -0.06941293 -0.05248096 -0.000636518 -0.057228353 -0.013486844 -0.03254005 -0.03001335 -0.018646646 0.055453114 0.050690692 -0.043230902 0.03269472 -0.066724695 0.069238715 0.038009755 -0.042051446 0.008449124 -0.04026365 -0.032456513 -0.040631626 0.040643957 -0.05519781 -0.017125517 0.07195823 0.029886626 0.0603574 -0.0138729615 -0.036175944 -0.07908417 0.026184525 -0.024017708 -0.046237603 -0.03013967 0.07358163 0.020386659 -0.042848494 -0.022096379 -0.08024031 0.06983086 0.051259004 0.047642402 -0.012297756 0.009156145 -0.09613611 0.0645038 0.062462576 0.021303788 0.034615837 0.02958224 -0.083620094 0.065698944 -0.03997127 0.08954337 -0.0018842667 0.020499215 -0.0416221 0.06637155 -0.04799636 0.028138261 0.043281052 -0.065315805 0.021035718 -0.07870147 -0.0049348306 -0.05814466 0.07069558 0.0030432146 0.0394979 0.023936637 0.07906387 -0.014722111 -0.0013109819 0.05823729 0.026127532 0.029533178 0.065265074 -0.026001893 0.046808857 0.009776509 -0.04916618 -0.009484987 -0.044938184 -0.059069913 0.010864639 -0.02338096 -0.035650942 0.01614203 0.033561595 -0.06300425 -0.0502878 -0.036332022 0.07089666 -0.053932894 0.068836324 0.06562676 0.038466047 -0.03198562 0.05206108 0.020939514 0.054276276 0.085947365 
-0.025035614 0.036505528 0.046517055 0.046075907 -0.07231383 -0.061448954 -0.018464245 0.0038053817 -0.048293326 0.051074147 -0.05762867 -0.050339624 -0.035020772 -0.051136237 -0.0124796005 0.04936913 0.0056723505 -0.00049875455 -0.048809595 0.04043441 -0.07196257 -0.035882216 0.042336583 -0.077521935 0.08020403 0.05335239 0.0066405404 0.0116318185 0.050389696 -0.048295084 0.024540996 -0.0054167877 0.025458947 -0.069788106 -0.0027978085 -0.045563918 -0.07461614 -0.07547135 0.006644234 0.03689278 -0.052618895 -0.048393108 -0.03178168 0.025611803 0.011378605 0.008122198 -0.04606855 -0.04189073 0.035412773 -0.035959646 0.05891579 -0.043176528 -0.027233882 -0.04484609 0.02282136 -0.08760893 -0.054160737 0.012021246 0.006931387 -0.06924623 0.06956231 -0.06837747 -0.06621383 0.06335835 0.05236222 0.043703824 -0.045077015 -0.008957469 0.06217469 -0.06286655 0.037077133 -0.08468052 0.034851257 -0.079401106 0.061434675 0.03447435 -0.04376241 0.019576343 -0.08063354 -0.03519842 0.0035920665 -0.028754603 -0.05231853 0.055197764 0.03167242 0.0039230604 -0.024323141 -0.03646018 -0.044075117 0.013672179 -0.017280612 0.01479204 -0.06582935 -0.019836063 0.02453637 -0.05340428 -0.05329454 -0.020279108 0.034367938 0.015990729 0.039423928 -0.0674247 0.0568948 -0.07379089 0.04360306 -0.05710665 -0.07540916 -0.08393487 -0.0014183531 -0.05268688 0.044061735 -0.012817727 0.00048433102 -0.08676632 -0.011447627 0.076933615 -0.028161151 -0.013717897 -0.026500955 -0.06823583 0.008322257 0.025036156 0.013612265 0.050438218 -0.032090686 -0.041231673 0.08145338 -0.0032262704 
-0.043036986 0.0027235586 -0.02142829 0.033038747 0.04574444 -0.031438604 -0.07049855 0.012558211 0.022079987 0.016040336 -0.04812651 0.041563004 -0.051313784 0.023726614 -0.024027633 -0.0015829294 -0.032340348 -0.05929103 -0.024019921 0.05241072 0.031743452 0.05936494 -0.06942934 0.059478465 -0.0041138753 0.037002675 -0.09784897 0.034570668 -0.0057159257 0.0698557 -0.08763242 -0.0057605132 0.063422844 -0.05128777 0.017981032 0.017825022 0.005102484 0.02126917 0.043416865 0.030995406 -0.02833844 -0.038601954 0.007218229 -0.07392351 0.057975363 -0.04329211 0.020983368 -0.08829164 -0.08007213 -0.06498404 -0.048257284 0.03139946 -0.023370272 0.11580572 0.06361956 0.033767693 -0.03650138 -5.1122945e-05 -0.032337777 -0.020632226 0.041058287 -0.10710873 0.050696872 -0.057195056 -0.048542023 -0.013244946 0.023791507 0.0563347 0.026892198 0.004052013 -0.0026781147 -0.06602128 -0.02014129 0.06795616 -0.015298647 -0.063301854 0.054783724 0.05819344 -0.08376435 0.087680615 0.08087573 0.0039359406 -0.030129423 0.07422627 0.070538186 -0.025100103 0.07016944 -0.036214206 -0.08586961 0.034330763 0.02567418 -0.048504535 -0.09642348 0.0420261 0.060280662 0.053467147 0.08579175 -0.0048769973 0.030677758 0.03243237 0.009156585 0.031614445 -0.047549263 -0.03946073 0.094778985 -0.060961347 -0.06434452 -0.033625025 -0.011795476 -0.03437208 0.008793823 -0.017218871 0.052064206 0.04115898 0.027869837 0.016903892 -0.017517256 -0.039599773 0.07032015 -0.08062236 -0.035828732 -0.025298093 -0.0007545868 0.01743807 -0.030836493 -0.050059162 0.024882682 0.008575474 
