-0.19454373 0.30348518 -0.27220154 0.0763863 -0.0016975203 0.04483773 -0.080762826 -0.1338212 0.089165896 0.03871043 
-0.13388215 0.19983245 0.06707413 0.04976612 0.016717536 -0.10877763 -0.15122978 -0.08498462 0.05903517 0.18695244 
-0.18660685 -0.24271208 0.09273189 0.19389258 -0.2559134 0.082273714 -0.19228043 0.269353 -0.10001534 0.17357452 
0.11037391 0.1383009 0.18475696 -0.0037605213 -0.1807473 0.034902804 0.024599787 -0.07751246 0.19818072 -0.13702162 
-0.028986976 0.013199836 -0.13352606 0.17676266 -0.13474587 0.040167138 0.04891251 0.17510684 -0.0076150894 -0.087235674 
-0.15130615 0.18833123 -0.09388518 -0.026860014 -0.14501798 -0.0019080192 0.19587664 0.05125524 -0.12646039 0.104172096 
-0.11804908 -0.20474397 0.11102618 -0.1546413 -0.11933552 -0.19198883 0.14434813 -0.071251124 -0.15297063 -0.14146015 
-0.1587028 0.07040234 0.074871354 0.11897094 -0.023571895 0.19188091 -0.16698354 -0.20775346 0.16281074 0.14964755 
0.16819571 0.0019724367 0.00573141 0.13772775 0.12544297 0.18257093 -0.14723478 -0.14292222 -0.109472126 -0.024744876 
0.15799613 0.15126589 -0.053119134 0.04158476 0.2527491 -0.1825353 -0.13067687 0.17657512 -0.22399367 0.028956398 
0.064181626 0.18744886 -0.26806185 -0.2441647 0.1987089 -0.240001 -0.018974006 0.25983626 0.0514535 -0.25784823 
0.16061701 -0.23821563 -0.107715875 0.1418479 -0.29881808 0.0033923318 0.18122764 0.097483754 -0.009476387 -0.24980998 
-0.1853623 0.017846758 0.0173054 0.30349883 -0.29783335 -0.27378526 0.12707181 -0.12333601 -0.0929038 -0.2573619 
-0.13367581 -0.1257119 0.04259888 -0.18905285 0.25489628 -0.13601728 -0.01146035 0.14288582 0.17724408 -0.031152008 
-0.054311994 0.079380736 0.17066254 -0.20732756 0.19445874 -0.19613257 0.017955337 0.10681588 0.110146984 -0.020255482 
-0.111016385 0.012964322 0.19697866 0.08525982 -0.026986836 0.06584808 -0.020664202 0.13303892 -0.04461475 0.15487342 
-0.08405768 0.024750218 0.06059061 0.14954157 -0.17418446 -0.1926943 0.0941772 -0.13928828 0.10622646 -0.055210307 
0.115173884 0.0997066 -0.07849674 0.12407576 -0.14996254 0.2126673 0.02997744 0.09539175 0.014988517 -0.12460255 
-0.35839543 0.2386881 -0.09936589 0.08032541 -0.0053911796 0.23119748 0.091534205 -0.03900108 0.16241492 0.22641218 
-0.17049745 -0.07655039 0.1277075 0.02644773 0.16195579 -0.0019315248 0.06732047 -0.017128037 0.12527326 -0.20091681 
0.1338927 -0.032922953 -0.17522019 -0.07472274 -0.047167614 0.071610495 -0.19042483 0.02069214 0.13315205 -0.09839004 
0.03710875 0.16193873 -0.16561662 0.2289862 -0.11917385 0.2902751 0.1745921 -0.2180429 -0.08820334 -0.12933685 
0.1835457 0.20564088 -0.10858966 0.06221843 -0.019809486 -0.02747383 0.08808224 -0.042878706 0.020235037 0.1967127 
0.07096331 -0.061187558 -0.13757113 0.047626905 0.13912918 0.06535207 -0.1374539 -0.12455661 -0.037259784 0.07634323 
0.07109006 0.051298097 -0.023410186 0.040315226 0.14337246 -0.021022037 0.0033457875 -0.1448034 -0.032664895 0.20845847 
-0.01915815 0.11713023 -0.051061474 0.19702862 -0.082392 0.23147574 0.1366192 -0.05776295 -0.26986244 -0.023526475 
0.13419007 -0.06206277 0.1847069 0.18579106 -0.26130328 0.1265078 -0.34206796 0.06910479 0.1967034 0.232009 
0.07330895 0.14438392 -0.3103554 -0.16915625 0.07620646 -0.11841602 -0.10870804 0.110249795 0.02497606 0.07861325 
0.26730645 -0.099029586 -0.0031829944 -0.1563679 -0.18927822 0.07859554 -0.1491327 0.04619821 0.11397986 0.027703676 
0.151231 -0.05243504 -0.06776774 -0.07327354 0.09083395 0.07563843 -0.06161672 -0.06894943 -0.022979766 -0.02377911 
-0.0350348 0.15569603 -0.018085973 0.0018694649 -0.10732344 0.15051945 0.21189097 -0.077715166 -0.09463412 0.18237703 
-0.047456592 0.007949697 -0.073337644 0.24398416 0.016330166 -0.19686928 0.15622988 0.25610676 -0.20778243 0.19417737 
-0.08981377 -0.21765614 -0.097655065 -0.2539009 -0.16554691 0.07782998 0.14071925 0.21057132 0.05377702 0.044891465 
-0.077738926 -0.120119974 -0.2110059 -0.05830223 -0.056582697 0.15242404 0.10113507 -0.13352472 0.18700261 -0.070257284 
-0.2834214 0.13087118 -0.2384202 0.05772854 -0.27235574 0.1996119 -0.14484927 0.14816193 -0.18521905 -0.19672257 
-0.062778965 -0.07727231 -0.032560438 -0.046595767 0.014433578 -0.16480407 0.020003349 -0.16393255 -0.20787917 -0.010324299 
0.10044168 -0.0048918435 0.09762167 0.08146778 0.07412577 -0.05702218 0.071283124 0.12522022 -0.17965256 -0.050998073 
-0.17433277 0.08959685 -0.066183664 0.0024705897 -0.107299864 0.026189711 0.14830375 -0.17835124 0.07072961 0.17005803 
0.20774485 0.08777313 0.124519005 0.03882134 -0.011910364 0.0653014 -0.18258995 -0.08416168 0.102673635 -0.05766189 
0.084800854 -0.03338678 0.0014099777 0.12995999 0.08114047 -0.059452817 -0.011744961 -0.048075095 -0.0079588145 -0.08010176 
0.0008068532 0.2036881 -0.020587742 0.043861315 0.10911469 0.20306356 -0.10074493 0.055595294 -0.15678793 0.021062657 
0.12819688 0.19622071 -0.16732864 -0.100323856 -0.13567518 -0.082758814 -0.02865091 0.08658831 -0.15253866 0.14979814 
-0.039108086 -0.08206575 -0.15399002 -0.068499856 -0.09164127 0.01842781 -0.0637543 -0.10893218 -0.19598985 0.18085152 
0.17581193 0.17392339 -0.13743424 -0.031956304 0.19300891 -0.037717395 0.0048390054 -0.18737999 0.075281866 0.09960677 
0.14160638 0.06371301 0.14287162 0.16365811 -0.02290658 -0.18006526 -0.05927051 0.21143255 -0.14447369 0.029202597 
0.13987519 -0.08290845 -0.20686372 -0.051168337 0.03132531 -0.17246267 0.12957178 0.056014165 -0.10043949 -0.041946888 
-0.1567422 0.11649974 0.11258118 0.056744024 -0.044473633 0.20328577 -0.07699257 -0.054674387 0.103030905 -0.13868281 
-0.24896993 0.10720953 0.14923677 0.04921846 0.08625313 -0.30700326 0.23732643 -0.11038833 0.1768525 -0.010113158 
0.13563159 -0.0016054226 0.19440067 0.12006517 0.19390677 0.16966203 -0.15507504 0.12332565 -0.11548984 0.12008619 
0.0022092313 0.024918348 0.11541624 0.11071463 -0.08856651 0.19630392 -0.15153767 0.16865675 0.03590612 4.3794513e-05 
0.24456398 -0.1178256 0.09413905 0.23730317 -0.09518942 -0.01393136 -0.2170993 0.048211444 -0.13770847 0.16207767 
0.30513516 -0.36155677 0.22901495 -0.25798097 -0.10548943 0.26822242 0.008148897 0.07385017 -0.1026332 0.034692485 
0.16876133 0.22823782 -0.19971257 -0.2363143 0.08612843 -0.22837125 -0.110647306 -0.007257723 -0.14378504 0.07357791 
0.031985853 0.23756728 0.015438821 -0.18318179 -0.1762994 -0.25426522 0.19737652 0.0090636285 -0.11594875 -0.14427081 
-0.08124687 -0.09372426 0.08728419 0.068497136 -0.05608532 -0.19487032 -0.037994146 -0.087879024 -0.13335246 -0.12603623 
0.052320044 0.19657223 -0.014032722 0.053948186 -0.12510222 0.11197834 -0.1185592 -0.12784678 -0.046174932 0.07560598 
-0.038458336 -0.17450306 0.20295438 -0.07293575 0.04337084 0.12078342 -0.062934 0.09884688 -0.16611576 -0.20303681 
0.20374021 -0.024981966 -0.2650923 0.015255636 0.06919656 0.030197473 0.24400868 -0.18489954 0.24453671 -0.17986035 
0.022664934 -0.113123044 -0.090268664 -0.117353536 0.06742217 0.017685011 -0.19402272 -0.14936687 0.08057861 0.03487958 
-0.19882779 -0.077453956 0.07887618 -0.20436157 -0.078864485 0.15376906 0.17337845 -0.10813517 -0.20631373 0.16932927 
-0.10448071 -0.08152248 -0.096799 0.08969416 0.19916792 0.11761047 0.034861296 0.076979 0.008994997 0.17635705 
0.0026491832 -0.31227103 0.1517512 0.073171996 -0.332235 0.07636405 -0.20295887 -0.21339996 0.11455571 0.0027565518 
-0.27805802 -0.23109025 0.14651495 0.21034256 -0.10052728 -0.18572374 0.05782491 0.27682906 0.10518542 -0.24531136 
0.0045089503 0.16743301 0.041916534 0.14453803 0.014157158 -0.35178596 -0.13074969 0.14012666 0.27312458 -0.08659467 
0.030728554 0.15451041 -0.069962986 -0.1697313 -0.16139373 0.13860664 -0.016731389 -0.10079216 -0.18302481 0.15244904 
-0.012638989 -0.08258818 -0.16077362 -0.033472378 0.18039544 -0.017064799 0.13675432 0.103790924 -0.11973434 0.20003952 
0.07612695 0.0077196956 0.02147165 -0.038519427 -0.07232942 0.05496402 -0.10903658 0.182546 0.12792714 0.10497607 
0.241322 0.019012718 0.038103957 0.21011214 0.034314487 -0.12959415 -0.021719282 -0.1799498 -0.25824276 0.02667896 
0.10056242 -0.20742649 0.1668847 0.01784605 -0.13958366 0.023732053 0.1004017 -0.08495686 -0.18308295 0.1339744 
0.16767769 -0.05932322 0.06343384 -0.11676686 0.16326608 -0.20707788 -0.091608495 -0.024045482 -0.092495635 0.16828288 
0.13901255 0.03105423 -0.3131994 0.20959336 -0.080811664 -0.17048334 -0.18576802 -0.11286889 0.28902465 0.09119936 
0.0727238 0.1197798 -0.061432116 0.00554265 0.14407657 -0.122848295 -0.17501506 -0.080873996 0.064995065 0.1923159 
0.0976831 0.01407354 0.19347666 0.01436522 0.035216425 -0.01565798 -0.11361371 -0.08459025 0.15321699 0.06560839 
0.09379096 0.1702254 0.11026387 0.1355467 -0.2068129 -0.13340028 0.15041389 -0.0071329772 0.012626186 -0.15306956 
0.23610365 0.17159356 0.062034905 0.24291165 -0.29478112 -0.23542279 0.27559793 -0.32176977 0.051659547 -0.24643068 
-0.099889554 0.1195717 0.039936513 0.0420378 -0.08541591 -0.046389952 0.020655349 0.027302667 0.010171771 0.18569104 
0.20626646 -0.006728149 -0.2086196 0.19756429 0.14675438 0.17610462 0.16843818 0.21462125 0.09406097 -0.18777543 
0.01689342 0.10086951 0.18870977 -0.2943831 -0.110220976 -0.0031822026 0.18897936 -0.059418224 0.10273998 0.13043573 
0.13016228 -0.14225927 0.10604756 -0.0067275735 -0.08389431 -0.021939846 0.17099315 0.07941251 -0.064031504 0.016515492 
0.07665415 0.22336617 0.16888703 -0.14014529 -0.22055142 0.20423265 -0.20032129 0.23289296 0.1776176 -0.032376245 
-0.17410134 -0.12994537 -0.055872843 0.12781648 0.18281178 -0.15913622 -0.15237346 -0.01775679 -0.15628603 -0.1740638 
-0.13712344 -0.13668431 -0.1333789 -0.060260415 0.008985758 0.16411187 -0.011289537 -0.006474957 0.15225469 0.15675418 
0.19107272 -0.2723908 0.038345423 0.11378533 0.2090025 0.003694485 0.15741588 -0.0479395 0.0064804745 -0.28273633 
-0.01786162 -0.1438363 -0.1652929 -0.16466665 0.2179279 -0.2704069 -0.0054704426 0.1978517 -0.1522447 0.113136545 
-0.17942649 -0.19855542 -0.084841385 0.10967782 0.11236218 -0.17990547 -0.06723172 0.18082492 0.10954571 0.064892516 
-0.05054344 0.025816575 0.062092192 0.23817074 -0.080335364 0.05417478 0.05717332 -0.054056402 -0.33480424 0.15584987 
-0.09269033 0.0045869313 -0.02388169 0.08994676 0.12650406 0.15155645 -0.12973338 -0.11816131 -0.18202285 0.13706487 
0.10767245 -0.056634296 0.1461628 0.17121054 -0.071967885 0.026986767 0.019301932 0.04341895 0.11302542 0.19049159 
0.08064669 -0.1747582 -0.11083924 -0.18687657 -0.17492186 0.14175098 0.09923844 0.19220294 -0.16368227 -0.07733693 
0.02274747 0.09968449 -0.18878205 -0.10705996 -0.037502225 -0.13144962 -0.10592608 0.06523787 -0.1583216 0.052061554 
-0.20351155 -0.13335435 0.08189192 -0.3083075 0.0039935294 -0.18761927 0.15230791 -0.30994937 0.21966696 0.10636443 
-0.12383963 -0.05215858 0.10698913 0.113302305 -0.014222547 -0.19051556 -0.060285434 -0.16292396 -0.034479097 -0.17441876 
0.05768904 -0.1182434 -0.22124174 0.11032051 0.11644542 0.2765504 -0.21826728 -0.19613092 0.026070923 -0.008650465 
0.032706816 -0.03571658 0.255471 -0.18989357 -0.049765516 0.11379535 0.25648764 0.09735055 0.028979883 -0.05596743 
-0.036196783 0.028497767 -0.21363302 0.13413863 -0.006129736 -0.08994365 0.09002694 -0.03421083 0.1367146 0.09752002 
0.07959606 -0.009156719 -0.18948147 0.16689424 -0.108362764 0.09765552 0.047604248 0.09572001 0.1651131 0.031839788 
-0.3016254 0.15256199 -0.124559 -0.031256523 0.064177014 0.16838323 -0.070229515 0.16378048 -0.1358781 -0.2085122 
0.039138064 0.08753201 -0.042394213 0.1729082 0.10937055 0.17857443 -0.17735185 0.025095338 -0.1495951 0.103757925 
-0.14643614 0.11616217 -0.023566248 -0.12486969 0.049449656 -0.102673106 -0.1585741 -0.064722 -0.02469414 -0.15192203 
-0.15460518 0.071248405 0.22463271 -0.20068248 0.19644234 -0.23839074 -0.09833077 -0.10871977 0.13233398 -0.15588902 
0.017552719 0.093834534 -0.07541898 0.15970717 0.13984208 -0.10051043 -0.17325397 0.1559806 0.08519523 0.033421487 
0.1782306 0.14311825 0.14358051 0.19484846 0.036971584 -0.025860772 -0.11122746 -0.09836151 0.058371052 0.049769387 
-0.15290564 -0.063005224 0.2406783 0.14318737 0.14855461 -0.1905954 -0.24225579 -0.03205255 0.22820662 -0.2471025 
-0.070336 -0.04264292 0.18073936 0.11514266 -0.12737846 -0.13479778 -0.073246196 0.047179595 -0.1551106 -0.042003006 
-0.14073783 -0.05429827 0.23396678 -0.102736965 0.26749286 0.15343472 -0.08766023 0.08781483 0.20361842 -0.1776434 
-0.14526542 -0.122607246 -0.09592261 0.1768014 -0.13775158 0.19588485 -0.1294235 0.06851407 -0.10537503 0.06886113 
0.07949418 0.12057708 -0.09391954 -0.046027362 -0.055998355 0.018384583 -0.034216844 -0.05614177 -0.13333443 0.18682417 
0.011363738 -0.09617106 0.10258754 0.03675598 0.14603375 0.14359255 0.16216435 0.13177381 0.07423876 -0.041369785 
-0.15891868 -0.078386925 -0.053148594 0.09578908 -0.02846101 0.011532997 -0.15278724 -0.16026726 -0.10560219 0.12517373 
-0.04938337 0.11591838 -0.11683869 0.1893973 -0.13256283 -0.05628959 0.12551332 -0.19817433 -0.037070993 -0.1817152 
-0.15763858 0.03423326 0.15686174 -0.10130552 -0.06582417 -0.090244204 -0.22484669 -0.21065338 -0.14338101 0.17038067 
-0.211099 -0.15832847 -0.24390475 0.24075872 0.17852718 0.11153207 -0.23919478 0.02286992 0.08695709 0.1752745 
-0.10571998 -0.114033565 -0.026046302 -0.0921946 -0.17731665 0.19252738 -0.05552547 -0.19552322 -0.03206638 0.035839774 
-0.2293388 0.096001156 -0.16989686 -0.029198213 0.10961093 0.2228785 -0.24321736 0.09107654 0.21387313 0.31226137 
-0.053215012 0.16935636 -0.003973193 -0.15795223 -0.035557132 -0.13794002 -0.042217307 -0.013255446 0.1867482 0.15001327 
0.27463785 -0.1337237 0.026796276 -0.062050786 -0.26141658 -0.11385771 0.13768628 -0.16373721 0.0104579255 0.23535499 
-0.26723495 0.051947813 -0.074826434 0.18641016 0.15876782 0.13440494 0.055961248 -0.26589096 0.089311115 -0.16369674 
-0.017135918 -0.10442499 0.16548912 0.051340595 -0.03524761 -0.038992196 -0.0068462193 -0.009595886 -0.091358535 0.09687637 
-0.15322426 -0.09461334 -0.17416139 -0.14587046 -0.15876377 -0.18117808 0.12155028 0.056415513 -0.08334547 -0.087437265 
0.07191287 0.20009573 0.09005977 0.022142783 -0.18021229 -0.074840665 0.17821147 0.084993675 0.14952283 0.022750929 
-0.11782983 -0.114475705 -0.15420124 -0.1822626 0.18497823 0.114769675 0.18817247 -0.18422198 -0.02944446 0.12842879 
0.15759803 -0.07379438 -0.09860157 0.08930595 -0.10254725 0.17927782 -0.076055914 -0.16685462 -0.03812684 -0.02025953 
0.13197747 -0.31418294 0.10916915 -0.1019782 0.011876212 -0.08244372 0.2451321 0.01576682 0.11254346 0.07957344 
-0.27796614 0.19470619 0.21126597 0.197861 -0.124278925 0.28330934 0.07501857 -0.21767724 -0.25197828 -0.081305094 
-0.073932916 0.12645715 -0.1113653 0.010414323 -0.13672541 -0.13874781 0.19548081 0.050036866 0.1773213 0.1926762 
0.031831488 -0.06720702 0.062979564 -0.15942565 -0.17633939 -0.14638858 0.16771282 -0.05475667 -0.11060743 -0.17637245 
0.09961729 0.15413125 -0.13179387 -0.13881126 0.2717816 0.13455197 0.09467371 -0.30684575 -0.10201416 -0.19776456 
-0.09742452 -0.24213071 0.16376615 -0.22217605 -0.16658407 -0.12500823 -0.10499019 0.024453185 -0.060237035 0.017990097 
